1.015566810965538025e-01
8.245245367288589478e-02
1.420675814151763916e-01
1.468281447887420654e-01
7.058072835206985474e-02
3.247770294547080994e-02
2.656930983066558838e-01
8.481923490762710571e-02
2.127348482608795166e-01
-6.241298094391822815e-02
-2.294397354125976562e-02
1.410770267248153687e-01
-9.844607114791870117e-02
-1.512967497110366821e-01
1.944882869720458984e-01
-1.013802736997604370e-01
8.007110655307769775e-02
1.230528112500905991e-02
2.228949666023254395e-01
-2.660870179533958435e-02
2.703254483640193939e-02
6.268451362848281860e-02
1.373749226331710815e-01
7.368469983339309692e-02
-1.194296777248382568e-01
1.950106956064701080e-02
5.518748983740806580e-02
-2.417066097259521484e-01
-4.153837915509939194e-03
-1.036842074245214462e-02
1.253734230995178223e-01
1.969943344593048096e-01
-2.406357973814010620e-01
3.179729729890823364e-02
-1.361045688390731812e-01
-1.824770122766494751e-01
-7.462177425622940063e-02
1.342082861810922623e-03
2.880218625068664551e-02
2.039147615432739258e-01
-6.754588801413774490e-03
-2.582086026668548584e-01
1.528239101171493530e-01
2.712118998169898987e-02
4.383339360356330872e-02
-1.707660704851150513e-01
1.539376229047775269e-01
-8.959908783435821533e-02
8.668368309736251831e-02
-4.402181133627891541e-02
1.124997735023498535e-01
2.234976179897785187e-02
-9.204741567373275757e-02
-7.862456887960433960e-02
2.150688171386718750e-01
-2.181555777788162231e-01
-5.905926227569580078e-02
6.784445047378540039e-02
-1.028493046760559082e-01
-1.232389509677886963e-01
-8.968337625265121460e-02
3.314640000462532043e-02
9.673767536878585815e-02
2.347877770662307739e-01
