-1.183672528713941574e-02
-2.228055335581302643e-02
-5.563790351152420044e-02
7.291568815708160400e-02
4.746426641941070557e-02
4.000160843133926392e-02
3.664582036435604095e-03
-2.950126491487026215e-02
1.476965546607971191e-01
-7.620678842067718506e-02
8.163470029830932617e-02
3.905095160007476807e-02
1.109717190265655518e-01
8.681565523147583008e-02
-6.262232363224029541e-02
-4.794405400753021240e-02
-3.216678649187088013e-02
6.229259446263313293e-02
1.047915965318679810e-01
-5.580760166049003601e-02
-3.885275498032569885e-02
1.946699768304824829e-01
-4.211606457829475403e-02
-1.152677014470100403e-01
-9.636706672608852386e-03
-1.637701876461505890e-02
-2.908849716186523438e-02
1.364575028419494629e-01
-2.082504145801067352e-02
-2.732459641993045807e-02
-3.941277042031288147e-02
4.014129191637039185e-02
-5.609332583844661713e-03
3.116967342793941498e-02
-1.509905140846967697e-02
-5.947045981884002686e-02
-1.054935902357101440e-02
-8.254957944154739380e-02
-3.507753461599349976e-02
-2.116459049284458160e-02
-3.124410100281238556e-02
1.194338575005531311e-01
-1.184402555227279663e-01
-1.091377511620521545e-01
1.137395724654197693e-01
-5.397120490670204163e-02
-1.009263694286346436e-01
7.981120795011520386e-02
5.752210039645433426e-03
6.374079734086990356e-02
1.855167895555496216e-01
-4.487863928079605103e-02
4.252831637859344482e-02
-3.113744407892227173e-02
-3.960310295224189758e-02
9.139081463217735291e-03
3.641913086175918579e-02
-6.913096457719802856e-02
-2.193415164947509766e-02
1.069000065326690674e-01
1.986606232821941376e-02
-8.356586098670959473e-02
-1.307202037423849106e-02
3.345119580626487732e-02
-1.000892464071512222e-02
2.716048955917358398e-01
-7.118782401084899902e-02
-2.979278378188610077e-02
-8.479527197778224945e-03
-5.793260037899017334e-02
-1.230871491134166718e-02
4.549533873796463013e-02
-3.162822127342224121e-02
9.070701152086257935e-02
7.334015518426895142e-02
9.443847375223413110e-05
1.704463660717010498e-01
-1.339021474123001099e-01
-5.067141726613044739e-03
-5.850110948085784912e-02
3.423308953642845154e-02
-5.651404336094856262e-02
1.183342188596725464e-02
6.384644657373428345e-02
1.610589027404785156e-01
-2.038977295160293579e-02
-6.205564737319946289e-02
-6.610009074211120605e-02
-4.415236413478851318e-03
-1.969560608267784119e-02
-5.223116278648376465e-02
-9.198942221701145172e-03
-4.198222607374191284e-02
-3.252827003598213196e-02
-4.657304659485816956e-02
-2.866030111908912659e-02
-5.560332164168357849e-02
2.308190315961837769e-01
3.916228562593460083e-02
3.889413550496101379e-02
-1.281332783401012421e-02
1.397337019443511963e-01
1.725087612867355347e-01
-3.987963497638702393e-02
2.050506621599197388e-01
-1.050047799944877625e-01
-3.964969888329505920e-02
6.863719224929809570e-02
-1.426384691148996353e-02
2.067539244890213013e-01
1.375269144773483276e-01
-3.510435670614242554e-02
6.996269524097442627e-02
-1.860859245061874390e-02
1.332573406398296356e-02
-1.230621989816427231e-02
-3.257845994085073471e-03
1.804903596639633179e-01
-5.405940115451812744e-02
2.858220338821411133e-01
-5.977876484394073486e-02
-3.455531597137451172e-02
1.808163225650787354e-01
-1.440768409520387650e-02
1.821472197771072388e-01
1.107756271958351135e-01
-3.119841963052749634e-02
-5.985133722424507141e-02
-8.190772496163845062e-03
1.052544936537742615e-01
-4.511447623372077942e-02
-3.608252480626106262e-02
1.365603655576705933e-01
3.223401680588722229e-02
-1.947826705873012543e-02
-5.733755603432655334e-02
-6.075946614146232605e-02
-6.109163910150527954e-02
-2.648438699543476105e-02
1.009289734065532684e-02
-5.350623279809951782e-02
-6.150546669960021973e-02
1.020369604229927063e-01
-4.358280822634696960e-02
1.319869756698608398e-01
1.393381953239440918e-01
-4.432830587029457092e-02
-2.418685704469680786e-02
-5.145857483148574829e-02
1.668434292078018188e-01
-3.372163698077201843e-02
8.493067324161529541e-02
-1.362690515816211700e-02
-4.423538688570261002e-03
-7.199116051197052002e-02
-1.929548382759094238e-02
2.885054424405097961e-02
-6.703235208988189697e-02
2.954134047031402588e-01
-6.268198788166046143e-02
-1.510861329734325409e-02
1.039383560419082642e-02
-1.217429265379905701e-01
1.152160018682479858e-01
-1.185006368905305862e-02
-1.134250834584236145e-01
-4.995844513177871704e-02
1.406024992465972900e-01
-2.192332781851291656e-02
9.065506607294082642e-02
-4.513316974043846130e-02
-6.947214156389236450e-02
-6.811636686325073242e-02
3.224310874938964844e-01
-3.013578429818153381e-02
2.594262063503265381e-01
-1.272392421960830688e-01
-1.100893765687942505e-01
-1.108517684042453766e-02
-2.450886182487010956e-02
7.214148528873920441e-03
-3.828318044543266296e-02
-2.825708501040935516e-02
3.050827085971832275e-01
4.476347565650939941e-02
-3.108167834579944611e-02
-1.090168487280607224e-02
2.648227848112583160e-02
-5.529774725437164307e-02
-2.332492545247077942e-02
1.701359599828720093e-01
9.676305204629898071e-02
-3.369234502315521240e-02
1.335305422544479370e-01
1.712680980563163757e-02
1.586270332336425781e-01
3.771686553955078125e-02
-1.141157839447259903e-02
-3.833900019526481628e-02
-3.495027124881744385e-02
-1.052140630781650543e-02
-5.660375207662582397e-02
-1.477241422981023788e-02
-1.124587468802928925e-02
-5.356661602854728699e-02
-7.791483309119939804e-03
-1.853916980326175690e-02
-1.047754753381013870e-02
6.332866381853818893e-03
5.837341398000717163e-02
4.025477543473243713e-02
2.233463376760482788e-01
2.110346220433712006e-02
-4.228853434324264526e-02
6.965389847755432129e-02
2.235209345817565918e-01
4.773097112774848938e-02
5.264725536108016968e-02
1.320704221725463867e-01
-1.836847662925720215e-01
-5.128458514809608459e-02
7.108280807733535767e-02
-8.275602944195270538e-03
1.110506200348027050e-04
2.386783212423324585e-01
-8.913991041481494904e-03
-2.405630983412265778e-02
-2.177483960986137390e-02
-3.891627490520477295e-02
-4.274864867329597473e-02
1.233771815896034241e-02
1.135593503713607788e-01
1.443670243024826050e-01
1.585432589054107666e-01
-5.009105429053306580e-02
-1.621550135314464569e-02
-3.680485114455223083e-02
-6.600216031074523926e-02
1.282318383455276489e-01
2.100439965724945068e-01
-9.049233980476856232e-03
2.588029205799102783e-01
-7.418894674628973007e-03
1.753940060734748840e-02
-5.340790841728448868e-03
3.182060271501541138e-02
-2.585969865322113037e-02
6.484539806842803955e-02
3.220405876636505127e-01
-8.878235821612179279e-04
-1.861435920000076294e-02
1.271723806858062744e-01
-3.588195145130157471e-02
1.220713630318641663e-01
-3.765975683927536011e-02
-2.988124638795852661e-02
