1.565765738487243652e-01
2.034364044666290283e-01
-1.233704537153244019e-01
1.848090440034866333e-01
-1.260381340980529785e-01
-7.625514641404151917e-03
1.973542124032974243e-01
-4.836853221058845520e-02
1.938391476869583130e-01
-1.330175399780273438e-01
9.277224540710449219e-02
3.838503733277320862e-02
-1.074345856904983521e-01
4.424480721354484558e-02
3.918230533599853516e-02
-9.412668645381927490e-02
-9.926982223987579346e-02
2.802037447690963745e-02
-5.880485102534294128e-02
-1.449410617351531982e-01
1.658374518156051636e-01
-7.602364569902420044e-02
1.190492436289787292e-01
-1.076399832963943481e-01
-1.131526976823806763e-01
1.043886467814445496e-01
1.604064404964447021e-01
4.129769746214151382e-03
1.578252762556076050e-01
-3.067601099610328674e-02
-5.636186525225639343e-02
-1.179908439517021179e-01
1.317966636270284653e-02
5.361380428075790405e-02
3.187924623489379883e-01
-1.491249203681945801e-01
-1.448418647050857544e-01
1.645074784755706787e-01
-1.128231957554817200e-01
-6.525467336177825928e-02
-5.863681435585021973e-02
-1.260978579521179199e-01
-3.208605200052261353e-02
-1.147405877709388733e-01
2.903641760349273682e-01
2.080482542514801025e-01
-2.726319991052150726e-02
-1.510837823152542114e-01
-3.678264841437339783e-02
-4.350130632519721985e-02
1.232963576912879944e-01
9.109982848167419434e-02
-2.772196531295776367e-01
-3.059697337448596954e-02
-3.065778315067291260e-02
-4.622483998537063599e-02
-2.866072580218315125e-03
-2.011633366346359253e-01
-1.136926785111427307e-01
1.788892149925231934e-01
9.705172851681709290e-04
2.358109951019287109e-01
-1.551674902439117432e-01
-7.016805559396743774e-02
2.886530570685863495e-02
-7.199768722057342529e-02
-6.704027205705642700e-02
1.800075732171535492e-02
1.152154356241226196e-01
-4.210719093680381775e-02
2.334255427122116089e-01
-3.738441690802574158e-02
1.635492295026779175e-01
-1.436695605516433716e-01
1.366066317132208496e-05
-3.608422353863716125e-02
7.518756389617919922e-02
2.105802148580551147e-01
-2.038438245654106140e-02
2.352018952369689941e-01
-4.958343692123889923e-03
1.790140867233276367e-01
-2.104157954454421997e-01
-1.603041887283325195e-01
2.535827457904815674e-01
-1.957258395850658417e-02
-1.466038078069686890e-02
1.127244904637336731e-01
-3.279374167323112488e-02
-8.462542295455932617e-02
1.387583017349243164e-01
1.921008229255676270e-01
2.204693704843521118e-01
2.038904428482055664e-01
2.328401058912277222e-01
1.027934849262237549e-01
