8.744956552982330322e-02
-6.253304332494735718e-02
-6.075601652264595032e-02
4.816728830337524414e-02
2.822814881801605225e-01
3.075329661369323730e-01
2.450326383113861084e-01
1.615440286695957184e-02
-2.624415978789329529e-02
3.252048492431640625e-01
2.820651978254318237e-02
1.748888045549392700e-01
4.418846592307090759e-02
-3.414134308695793152e-02
5.855564028024673462e-03
-3.160180151462554932e-01
2.839695103466510773e-02
1.147101894021034241e-01
-5.448035895824432373e-02
-1.940969228744506836e-01
2.183896005153656006e-01
8.722821623086929321e-02
9.377777576446533203e-02
-8.980753272771835327e-02
1.947239786386489868e-01
5.558784306049346924e-02
-1.023205742239952087e-01
-6.895053386688232422e-02
-6.639593094587326050e-02
2.278974801301956177e-01
2.202261835336685181e-01
1.062929853796958923e-01
8.558779954910278320e-02
2.439746260643005371e-01
-8.334920555353164673e-02
1.428297311067581177e-01
1.408132016658782959e-01
2.286247014999389648e-01
5.556961521506309509e-03
1.551427692174911499e-01
3.165435791015625000e-01
-4.806068241596221924e-01
-8.815476670861244202e-03
3.013609945774078369e-01
5.201831832528114319e-02
2.145984582602977753e-02
-5.963769182562828064e-02
-3.941440582275390625e-02
8.419067412614822388e-02
-7.621071487665176392e-02
-2.240303345024585724e-02
-3.282276690006256104e-01
3.070480227470397949e-01
-3.807447552680969238e-01
1.254203766584396362e-01
2.309192568063735962e-01
-7.826987653970718384e-02
-1.499429941177368164e-01
3.245329260826110840e-01
-7.765406370162963867e-02
-1.933481097221374512e-01
-9.837875515222549438e-02
3.115431964397430420e-01
2.810407802462577820e-02
