#include <math.h> 
 #include <string.h> 
#include "./include/k2c_include.h" 
#include "./include/k2c_tensor_include.h" 

 


void my_model(k2c_tensor* input_layer_input, k2c_tensor* keras_tensor_25_output) { 

size_t conv2d_stride[2] = {1,1}; 
size_t conv2d_dilation[2] = {1,1}; 
static float keras_tensor_1_output_array[28672] = {0}; 
k2c_tensor keras_tensor_1_output = { &keras_tensor_1_output_array[0], 3, 28672, { 32,32,28, 1, 1 } }; 
static float conv2d_padded_input_array[3468] = {0}; 
k2c_tensor conv2d_padded_input = { &conv2d_padded_input_array[0], 3, 3468, { 34,34, 3, 1, 1 } }; 
size_t conv2d_pad[4] = {1,1,1,1}; 
float conv2d_fill = 0.0f; 
float __attribute__((aligned(32))) conv2d_kernel_array[756] = {
+2.75866538e-01f,-5.04479632e-02f,-2.87574172e-01f,+3.22336763e-01f,+1.66525662e-01f,
-2.80641496e-01f,-1.86867908e-01f,-2.49303002e-02f,+1.79943413e-01f,+2.59532154e-01f,
+5.12796104e-01f,-2.32874542e-01f,-3.00657749e-01f,+3.61674689e-02f,-4.18228805e-02f,
-1.58587039e-01f,+2.78135687e-02f,-1.32198883e-02f,-2.22341627e-01f,+1.22164711e-02f,
-2.99468607e-01f,+1.70891955e-01f,+3.06579508e-02f,-3.61106433e-02f,+9.28972065e-02f,
+1.67783439e-01f,-1.33254513e-01f,+6.20628655e-01f,+3.18384618e-01f,+1.98731378e-01f,
-3.34656954e-01f,-2.29851946e-01f,-9.59112495e-02f,+1.77327078e-02f,-4.56536599e-02f,
-9.07006636e-02f,+2.43798196e-01f,-1.53528720e-01f,+2.12539509e-01f,-7.00776696e-01f,
+1.58593822e-02f,-3.07197303e-01f,+1.58178061e-01f,-3.41741085e-01f,-1.65966168e-01f,
-3.35976183e-01f,-3.36373389e-01f,+9.53924283e-02f,-1.00640774e-01f,-3.27241480e-01f,
-1.10379560e-03f,+3.13166201e-01f,+4.35490608e-02f,+2.88383365e-01f,-3.57069969e-02f,
+2.91232616e-01f,+2.42646724e-01f,+2.27981910e-01f,+5.94487227e-02f,+1.47247687e-02f,
+1.96791321e-01f,-3.13682735e-01f,+1.72167659e-01f,-5.30760475e-02f,-1.57461129e-02f,
+1.58668123e-02f,+3.36582869e-01f,-2.05476701e-01f,-3.12024534e-01f,-1.21687427e-01f,
+2.65655935e-01f,-1.97806612e-01f,+1.42779663e-01f,-2.93059677e-01f,-3.55538160e-01f,
-2.17558965e-01f,+1.88470766e-01f,+3.98461670e-02f,-2.09427848e-01f,+2.80731004e-02f,
+2.46067002e-01f,+2.19327919e-02f,+1.22407116e-01f,+8.60910788e-02f,+2.33338878e-01f,
-1.93031862e-01f,+9.58069321e-03f,+2.55939335e-01f,-1.37441261e-02f,-6.41655028e-01f,
-1.09467097e-01f,-2.34370977e-01f,+1.42212793e-01f,+3.44603211e-01f,+7.10581094e-02f,
+1.14682950e-02f,-3.50488812e-01f,+5.09402931e-01f,-2.47087240e-01f,-2.91497409e-01f,
-1.82863176e-01f,+1.79197669e-01f,+4.61709678e-01f,+8.33175927e-02f,-3.21798146e-01f,
+3.04419518e-01f,+4.00275111e-01f,-2.83112675e-01f,+1.08846210e-01f,+7.47322366e-02f,
+2.16077775e-01f,+6.95713282e-01f,+2.19271019e-01f,+1.45963684e-01f,+1.86166584e-01f,
-2.66251922e-01f,-2.87818968e-01f,-4.21084821e-01f,+2.83500850e-01f,-3.85099113e-01f,
+1.68157034e-02f,-5.45835376e-01f,-3.47479314e-01f,-1.39334768e-01f,+1.11809172e-01f,
+2.44214967e-01f,+1.43361598e-01f,-2.94540137e-01f,+1.35801360e-01f,-1.67577103e-01f,
+3.60567331e-01f,+4.66883071e-02f,+3.97782698e-02f,-4.51716900e-01f,+5.46188354e-01f,
-2.22420320e-01f,-3.13630223e-01f,+2.22128063e-01f,+3.21991205e-01f,+4.18145120e-01f,
+1.84239864e-01f,+1.84780642e-01f,+4.57782820e-02f,-3.13999504e-02f,+2.82646149e-01f,
-2.64156371e-01f,+5.79262137e-01f,-3.90230119e-01f,-2.58999705e-01f,+1.97318457e-02f,
-5.07101953e-01f,-1.57017425e-01f,-3.11323941e-01f,-9.37848538e-02f,+3.30238551e-01f,
-1.26727238e-01f,+7.51759261e-02f,-2.30716184e-01f,+2.71619976e-01f,-4.12608206e-01f,
+3.44395489e-01f,+4.86527309e-02f,+4.16802347e-01f,-1.84950024e-01f,-2.31551588e-01f,
-2.04828992e-01f,+2.55878329e-01f,+3.26680206e-02f,+8.51769000e-02f,-2.20796019e-01f,
-2.40578681e-01f,+5.52668460e-02f,+1.16152734e-01f,-1.04503357e+00f,-6.70503750e-02f,
-5.70095964e-02f,-1.87879018e-02f,+1.65042698e-01f,-2.95754939e-01f,-6.20167889e-02f,
-1.31992623e-01f,+3.08726788e-01f,-3.69625747e-01f,-1.87633172e-01f,-2.45362520e-01f,
+3.19935620e-01f,+3.58684033e-01f,+6.53336272e-02f,-2.06270248e-01f,+1.28455997e-01f,
-1.56206526e-02f,-2.25810423e-01f,+1.62014291e-01f,-2.41015643e-01f,+1.13023162e-01f,
+9.16654691e-02f,+1.85233638e-01f,-1.03250202e-02f,-4.80792299e-02f,-2.08829463e-01f,
+1.34598553e-01f,-5.10949075e-01f,-2.50181742e-02f,-3.28094631e-01f,-2.30981961e-01f,
-2.60094523e-01f,-3.00228685e-01f,-1.65722013e-01f,+2.15682343e-01f,+2.29140986e-02f,
-9.48639587e-02f,-1.30452439e-01f,-1.07474566e-01f,+2.44906284e-02f,+2.09210619e-01f,
+9.58555713e-02f,-1.18863389e-01f,-2.72397220e-01f,+1.76360920e-01f,-3.75897139e-01f,
-3.39537740e-01f,+1.77114636e-01f,+1.55044571e-01f,-3.20160240e-01f,+3.55281442e-01f,
-1.03885718e-02f,-1.14531770e-01f,+9.95737910e-02f,+3.26297611e-01f,-4.84398901e-01f,
+3.27485412e-01f,-4.72616076e-01f,-2.53457785e-01f,-1.75491665e-02f,-3.95435989e-01f,
-1.88030854e-01f,-9.45042968e-02f,-3.21319878e-01f,+9.99373719e-02f,-7.36296996e-02f,
+2.20288262e-01f,+7.34213144e-02f,+6.25282079e-02f,+6.69262260e-02f,+1.51234388e-01f,
+1.06394999e-01f,+3.25919241e-01f,-2.10604310e-01f,-4.34918225e-01f,-3.61359447e-01f,
+2.49505967e-01f,-3.89600158e-01f,+1.26273453e-01f,-7.50044882e-02f,+1.24019422e-02f,
-1.68990821e-01f,+2.63089687e-01f,-7.14808032e-02f,-3.60091716e-01f,-7.30008408e-02f,
-1.50820287e-02f,+4.89290655e-01f,+2.10973471e-01f,-2.19704837e-01f,-3.09392720e-01f,
+2.96744078e-01f,-4.87565190e-01f,-2.56550699e-01f,-3.93920958e-01f,+3.44151109e-01f,
-2.36068264e-01f,+1.35566562e-01f,-1.63201451e-01f,+2.36432493e-01f,-1.48929417e-01f,
+6.05877995e-01f,-5.33954501e-01f,-1.39536224e-02f,-2.69732773e-01f,-4.55941141e-01f,
+3.41701239e-01f,+1.63975433e-01f,-1.76080480e-01f,-4.28202510e-01f,-3.95955741e-01f,
+2.49199584e-01f,-1.77168399e-01f,+6.72823144e-03f,+3.15825373e-01f,+2.36773565e-01f,
-4.12752718e-01f,-5.35082519e-01f,-2.77984161e-02f,-2.83916257e-02f,-3.61644030e-01f,
-1.05583608e-01f,-3.79027933e-01f,+5.01638472e-01f,+6.30032793e-02f,+3.67714196e-01f,
-1.43461287e-01f,-3.71909082e-01f,-5.17848954e-02f,+8.52755129e-01f,-3.58613670e-01f,
+1.85655981e-01f,-3.36295529e-03f,-5.15688360e-01f,+1.17124207e-01f,+3.20164889e-01f,
+2.14035958e-02f,-3.00446868e-01f,-3.73890400e-02f,+2.90357500e-01f,+2.28546828e-01f,
+2.54974693e-01f,+1.68151096e-01f,+3.76171023e-01f,-1.87933147e-01f,-3.42071861e-01f,
-1.87023580e-01f,-1.03061244e-01f,-3.58839512e-01f,+9.02026333e-03f,-5.61994016e-01f,
+4.48123366e-01f,-1.80930849e-02f,-1.68512449e-01f,+2.95839190e-01f,+4.95267026e-02f,
-1.21989459e-01f,+7.95580864e-01f,-1.76189169e-01f,+4.48046140e-02f,+2.58224517e-01f,
-3.71025085e-01f,-2.89973915e-01f,-3.06213766e-01f,+6.43833637e-01f,-4.10794392e-02f,
+3.12155392e-02f,-2.04576805e-01f,-1.88363820e-01f,+4.42560136e-01f,+2.22189929e-02f,
+1.91083506e-01f,+5.68697035e-01f,+3.31971943e-01f,+1.58102378e-01f,+3.74218673e-01f,
+3.31961483e-01f,-1.90068886e-01f,-6.31938055e-02f,-2.32300255e-02f,+1.17186204e-01f,
+9.29410830e-02f,-3.05456907e-01f,+5.82273841e-01f,+1.58450514e-01f,+1.72920153e-01f,
+2.17066109e-01f,-1.84607968e-01f,-2.71745980e-01f,-2.15915158e-01f,-4.47422236e-01f,
-2.65444592e-02f,+7.44841397e-01f,-3.28360468e-01f,-4.50664729e-01f,-2.90801506e-02f,
+3.95696387e-02f,+3.77835512e-01f,-7.00349659e-02f,-6.68368459e-01f,+1.63883492e-01f,
+1.22427694e-01f,+5.54939091e-01f,+8.25448558e-02f,+8.97965789e-01f,-5.54449484e-02f,
+8.44894350e-02f,+1.35578975e-01f,+2.56532878e-01f,+3.55218314e-02f,-7.28618056e-02f,
-5.29935658e-01f,+1.29983993e-03f,+9.29482579e-02f,+1.79330498e-01f,+3.69729966e-01f,
-2.62518898e-02f,-1.50814354e-01f,-3.55611265e-01f,+3.11475456e-01f,+6.70858085e-01f,
+1.16351314e-01f,+1.34385247e-02f,+2.17255667e-01f,+4.11006987e-01f,+4.90039170e-01f,
-1.95376459e-03f,-3.61919552e-01f,+6.88754320e-02f,+7.27038905e-02f,+2.38702819e-01f,
-2.47504264e-01f,+5.24391592e-01f,+4.24813814e-02f,+7.85656199e-02f,+6.29641265e-02f,
+3.51586580e-01f,-5.87470591e-01f,+3.07016939e-01f,-2.49884203e-01f,+2.86586471e-02f,
+3.21262449e-01f,+9.49623138e-02f,-7.10140392e-02f,+2.00213671e-01f,-1.55905142e-01f,
-2.83154607e-01f,-4.01861250e-01f,+1.71927944e-01f,+4.46598351e-01f,-1.87148675e-01f,
-4.25453335e-01f,-2.23713681e-01f,+2.54999638e-01f,-4.77452517e-01f,+1.84059426e-01f,
+2.40350708e-01f,+2.18716085e-01f,-2.40139216e-01f,+2.29379788e-01f,-4.40226287e-01f,
-2.29051754e-01f,+3.58371809e-02f,-3.75347495e-01f,+1.63147509e-01f,-4.63309586e-02f,
-1.36404797e-01f,+4.43443388e-01f,+1.04622610e-01f,-1.88025698e-01f,+4.24861699e-01f,
+1.07286066e-01f,-1.27684310e-01f,-1.74830392e-01f,-3.89472574e-01f,+6.41066507e-02f,
+2.19770283e-01f,+2.51103401e-01f,-4.18275207e-01f,-4.62490022e-02f,-2.40419671e-01f,
+1.72523499e-01f,-5.85757792e-01f,-2.42041335e-01f,+3.19603503e-01f,+1.29375473e-01f,
-5.78051805e-02f,-9.11870003e-02f,-1.75460890e-01f,+9.76553094e-03f,+3.20107043e-01f,
-4.04994845e-01f,-5.59209287e-02f,+1.49743170e-01f,-6.39732480e-02f,-2.47607946e-01f,
-4.66813846e-03f,-8.01198632e-02f,+4.02058601e-01f,+3.81954342e-01f,-2.24097162e-01f,
+6.00747056e-02f,-1.99522197e-01f,+2.33688317e-02f,+1.58086061e-01f,+4.92730409e-01f,
+1.40898347e-01f,-2.70525855e-03f,+3.27421948e-02f,+1.18460506e-01f,-3.93921107e-01f,
+1.68952942e-01f,+2.31294855e-01f,+1.66302323e-01f,-1.35796100e-01f,-3.68243307e-01f,
-1.05846390e-01f,+1.01080127e-02f,+1.92211166e-01f,-1.92465976e-01f,-2.34801829e-01f,
-4.19827789e-01f,+2.52611399e-01f,+6.24406710e-02f,+1.73145294e-01f,+4.79660332e-02f,
-1.41415164e-01f,+1.81717157e-01f,-5.11208177e-02f,+3.72248329e-02f,+2.82705158e-01f,
+2.60610551e-01f,-3.20748538e-01f,-1.55147910e-01f,+2.01075763e-01f,-1.80120636e-02f,
-1.21568985e-01f,-1.69011593e-01f,-1.80585295e-01f,-4.54112068e-02f,-1.30065158e-01f,
-1.30819917e-01f,-2.46248454e-01f,-1.31387964e-01f,+6.82545751e-02f,+5.69240525e-02f,
+1.16052218e-02f,+3.07789724e-02f,-1.13925412e-01f,-2.51333304e-02f,-6.18295372e-02f,
+6.42996654e-02f,-3.93564329e-02f,-1.18750311e-01f,-4.30841535e-01f,-3.79895359e-01f,
-5.10165002e-03f,-4.21434253e-01f,+2.24571049e-01f,-8.60227924e-03f,-4.54404503e-01f,
-3.16323370e-01f,-3.20673436e-01f,+4.63221192e-01f,+8.24727789e-02f,-1.12565108e-01f,
+1.48014724e-01f,+8.63618702e-02f,-5.00305891e-01f,-3.03728342e-01f,+2.21910909e-01f,
+1.84587851e-01f,-1.14231616e-01f,+2.54409373e-01f,-2.13692442e-01f,+2.51777947e-01f,
+2.36873895e-01f,+4.11148816e-01f,-7.32709989e-02f,-2.69842863e-01f,-1.73565924e-01f,
-1.61094919e-01f,+4.14891578e-02f,+2.21228674e-02f,-5.04626743e-02f,-2.14839540e-02f,
+1.46903634e-01f,+2.22454339e-01f,-3.11746269e-01f,-9.43908766e-02f,-1.38517380e-01f,
+1.23647161e-01f,-3.97826247e-02f,+1.80990756e-01f,+1.69467211e-01f,+2.88003176e-01f,
-1.40279621e-01f,+7.00225635e-03f,-9.89874229e-02f,+2.46928036e-02f,-7.15317190e-01f,
+2.35768706e-01f,-4.54553455e-01f,+2.80337900e-01f,+4.53821331e-01f,-1.63627509e-02f,
+2.69422054e-01f,+1.07852772e-01f,-2.05670357e-01f,-1.55871168e-01f,+3.46045166e-01f,
+1.14935245e-02f,+2.79877007e-01f,-4.47775645e-04f,-2.17844218e-01f,-2.80610114e-01f,
+2.11875532e-02f,+4.86215726e-02f,+3.54375780e-01f,-1.41578168e-01f,-3.77578586e-01f,
+2.36981492e-02f,+3.25885355e-01f,-2.47250348e-01f,+3.74079257e-01f,+4.39333826e-01f,
+8.93531367e-02f,-3.38489354e-01f,+4.68209594e-01f,+4.94772792e-02f,+4.33627158e-01f,
-2.21929755e-02f,-5.28047562e-01f,+1.43573612e-01f,-1.83916479e-01f,+2.59713084e-01f,
-4.56325382e-01f,-2.78937668e-01f,+3.42282914e-02f,-4.89408910e-01f,-5.86336143e-02f,
-2.15497613e-01f,-3.63561094e-01f,-3.17373961e-01f,-1.86713547e-01f,-1.95219796e-02f,
-2.71695554e-02f,+2.60291785e-01f,-2.21622258e-01f,-8.37516934e-02f,+4.05870646e-01f,
-3.56209815e-01f,-1.60526678e-01f,+2.88357586e-01f,+6.04652762e-01f,-1.96859390e-01f,
+7.03288972e-01f,+9.07316357e-02f,+3.38666528e-01f,-8.55349898e-02f,-8.74113217e-02f,
+2.36953378e-01f,-2.38913223e-01f,-3.10979158e-01f,-5.39292991e-01f,-6.46689832e-01f,
+2.93451071e-01f,-1.45701215e-01f,-1.63347304e-01f,+2.83504575e-01f,-3.99104446e-01f,
-1.85922235e-01f,-3.51159036e-01f,+3.93662095e-01f,+2.31564075e-01f,+3.46264392e-01f,
+3.52740325e-02f,+9.96058062e-02f,+3.86211216e-01f,-1.71124190e-01f,+2.17550144e-01f,
+3.57044816e-01f,+4.99593109e-01f,-2.88854569e-01f,-6.44381195e-02f,+4.36050951e-01f,
-9.30164475e-03f,+2.08071858e-01f,-7.23406225e-02f,-3.09089094e-01f,+3.23310971e-01f,
+7.30356723e-02f,-4.48462039e-01f,-5.97298563e-01f,+1.47218913e-01f,-8.11416060e-02f,
+8.94792601e-02f,+2.59934336e-01f,-1.43229932e-01f,+1.04060017e-01f,+4.64060046e-02f,
-6.71753436e-02f,-1.40575528e-01f,-4.19000953e-01f,-1.10034809e-01f,+1.04149776e-02f,
+5.99870682e-02f,+3.07020575e-01f,-3.91779840e-02f,+6.16811812e-02f,-1.71398789e-01f,
-1.69396192e-01f,-1.69032142e-01f,+1.67371422e-01f,+3.04295391e-01f,-3.35715353e-01f,
-1.85251743e-01f,-1.21931471e-01f,+5.90343378e-04f,+2.00023223e-03f,+2.69901510e-02f,
+3.80985320e-01f,+7.97016248e-02f,-3.10581326e-01f,+1.42888531e-01f,-5.09050898e-02f,
-2.37205386e-01f,-4.21677120e-02f,-2.08369941e-02f,+1.72939643e-01f,-2.28401646e-01f,
+3.15162428e-02f,+1.15461880e-02f,+2.58846339e-02f,-1.43095896e-01f,-4.16573957e-02f,
+9.34165809e-03f,+3.20005655e-01f,+4.89050038e-02f,+1.12006128e-01f,+1.91818208e-01f,
+1.64221928e-01f,+2.93907046e-01f,-3.11443567e-01f,-3.98614973e-01f,+2.98509121e-01f,
-5.07551879e-02f,-8.26778114e-02f,+6.58856053e-03f,+1.06395289e-01f,+5.41085750e-02f,
+1.77425101e-01f,-7.81031847e-02f,+2.35449538e-01f,+2.15248223e-02f,+4.63340878e-02f,
-1.86250925e-01f,+2.37486735e-01f,+1.30583361e-01f,-1.12423792e-01f,+1.56423973e-03f,
+5.29487170e-02f,+1.68159336e-01f,+1.11807458e-01f,+1.54277295e-01f,+2.27773279e-01f,
+2.06582159e-01f,+3.09018463e-01f,-5.03560841e-01f,+3.47697467e-01f,+9.38365459e-02f,
-1.10298209e-01f,-4.40618545e-01f,-1.96047679e-01f,+3.38943571e-01f,-6.71111867e-02f,
-7.50916898e-02f,+9.18161646e-02f,-3.41428459e-01f,+1.01462431e-01f,+1.07762575e-01f,
+4.02412802e-01f,}; 
k2c_tensor conv2d_kernel = { &conv2d_kernel_array[0], 4, 756, {  3, 3, 3,28, 1 } }; 
float __attribute__((aligned(32))) conv2d_bias_array[28] = {
+8.37388039e-02f,+7.27624819e-02f,+1.20344505e-01f,+4.74101938e-02f,+1.30826548e-01f,
+2.89109379e-01f,+6.26500025e-02f,+1.40121385e-01f,+8.16879272e-02f,+9.37541798e-02f,
-3.27485353e-02f,+1.73318200e-02f,+1.51418984e-01f,+6.95093721e-02f,+2.15262890e-01f,
+1.63086176e-01f,+9.90294814e-02f,+5.15628494e-02f,+9.80858132e-02f,+4.89855334e-02f,
+2.33014151e-01f,+9.49370340e-02f,+9.78575945e-02f,+1.30280986e-01f,+1.77788347e-01f,
+5.70701323e-02f,-5.75274289e-01f,+1.07315436e-01f,}; 
k2c_tensor conv2d_bias = { &conv2d_bias_array[0], 1, 28, { 28, 1, 1, 1, 1 } }; 

 
size_t conv2d_1_stride[2] = {1,1}; 
size_t conv2d_1_dilation[2] = {1,1}; 
static float keras_tensor_3_output_array[28672] = {0}; 
k2c_tensor keras_tensor_3_output = { &keras_tensor_3_output_array[0], 3, 28672, { 32,32,28, 1, 1 } }; 
static float conv2d_1_padded_input_array[32368] = {0}; 
k2c_tensor conv2d_1_padded_input = { &conv2d_1_padded_input_array[0], 3, 32368, { 34,34,28, 1, 1 } }; 
size_t conv2d_1_pad[4] = {1,1,1,1}; 
float conv2d_1_fill = 0.0f; 
float __attribute__((aligned(32))) conv2d_1_kernel_array[7056] = {
+1.51612917e-02f,+1.40403882e-02f,+2.94367503e-02f,-1.80946261e-01f,+1.07451446e-01f,
-7.29497895e-02f,+6.65447637e-02f,-1.70659777e-02f,-8.84041470e-03f,-1.39951095e-01f,
-2.00996786e-01f,-1.40330866e-02f,+3.85405757e-02f,-9.77541581e-02f,+1.32464528e-01f,
+3.07884049e-02f,+2.35501438e-01f,-2.45804302e-02f,+4.43653136e-01f,+2.36081183e-02f,
-1.65842045e-02f,-6.89102113e-02f,+2.68046468e-01f,-5.12115598e-01f,+7.58244321e-02f,
-1.63667966e-02f,-6.39979765e-02f,-3.49135607e-01f,-1.14537649e-01f,-3.99108604e-02f,
+1.56575501e-01f,-1.00409975e-02f,-5.95304258e-02f,+5.75626502e-03f,-7.44282380e-02f,
-5.67050636e-01f,-5.92904426e-02f,-1.16123207e-01f,-1.81364939e-01f,-3.53266060e-01f,
-8.17993581e-02f,-1.26224300e-02f,+9.03701857e-02f,+1.60561815e-01f,-9.81353521e-02f,
-2.02594265e-01f,+2.63977945e-01f,+1.83285072e-01f,-3.91405344e-01f,+6.97678253e-02f,
-2.74626315e-02f,+1.81561247e-01f,-2.01499060e-01f,+1.63982004e-01f,+3.99219505e-02f,
+1.05866097e-01f,+2.86496252e-01f,+1.64218336e-01f,-1.75349995e-01f,-2.71845628e-02f,
-3.91013980e-01f,+5.12859076e-02f,-4.80608821e-01f,-1.75275169e-02f,-6.37772083e-02f,
-9.31738555e-01f,+3.25118750e-02f,+4.45250235e-03f,+6.57323524e-02f,-1.05837613e-01f,
-6.11611456e-02f,+9.28170756e-02f,-1.29635064e-02f,-1.76064223e-01f,+8.03903490e-02f,
-1.61188141e-01f,-2.33122315e-02f,-6.41565919e-02f,-2.74636835e-01f,-5.45298643e-02f,
-2.85292953e-01f,+3.59460473e-01f,+1.11011855e-01f,+6.60276785e-02f,-1.88563511e-01f,
+5.03639400e-01f,-5.90566956e-02f,-1.09084554e-01f,-5.44074997e-02f,-5.78934886e-02f,
-4.52045202e-01f,-2.30913147e-01f,-5.72546106e-03f,-8.53269696e-02f,-9.64330509e-02f,
+2.43887156e-01f,-1.06283881e-01f,+4.85344157e-02f,-2.21360371e-01f,+9.91135091e-03f,
+2.05431208e-01f,-3.57642397e-02f,+1.85775623e-01f,+7.04779997e-02f,+4.14532036e-01f,
-1.83505177e-01f,-2.47183442e-01f,+2.20675051e-01f,-3.54775488e-01f,+9.84151438e-02f,
+2.90372431e-01f,-2.25746676e-01f,+2.50779748e-01f,-2.05953717e-01f,+4.08516973e-01f,
-2.13511125e-03f,+2.13349909e-01f,-5.70737012e-02f,+4.38346595e-01f,-3.36964101e-01f,
-9.70624983e-02f,-4.71181236e-02f,+1.21284090e-01f,-9.89197716e-02f,+2.04897728e-02f,
-9.15846154e-02f,+1.47966638e-01f,+2.75556564e-01f,+1.63989574e-01f,+7.36986846e-02f,
-1.18483484e-01f,+8.30687582e-02f,+8.42218325e-02f,-2.65449911e-01f,-3.04043263e-01f,
-6.34049654e-01f,+1.67683631e-01f,-3.49343956e-01f,+1.27115339e-01f,-8.03334534e-01f,
-1.36604056e-01f,-1.16248518e-01f,+3.50243032e-01f,-2.75086462e-01f,-3.62380087e-01f,
+7.06836805e-02f,-2.59564728e-01f,-3.91482383e-01f,+1.43547459e-02f,+2.44967908e-01f,
-1.79757327e-01f,-3.65607649e-01f,+1.11811340e-01f,-3.26364636e-02f,+1.57885134e-01f,
+2.91761314e-03f,-7.83596158e-01f,-2.65491903e-01f,-4.37568873e-01f,-4.00797039e-01f,
+2.38643467e-01f,+3.28677654e-01f,+3.61055225e-01f,-4.23327327e-01f,-4.53682840e-02f,
-1.08674860e+00f,-6.89978078e-02f,-9.41439331e-01f,+7.54521638e-02f,+5.56183718e-02f,
+9.51449201e-02f,+4.02064115e-01f,-3.40496339e-02f,-2.46194433e-02f,+8.60136524e-02f,
-6.62903428e-01f,+7.36673945e-04f,-3.47252458e-01f,+1.98402733e-01f,-1.58317816e-02f,
-3.02529689e-02f,-2.14358028e-02f,+7.32900426e-02f,+1.02690876e-01f,-7.93585554e-02f,
+5.93790263e-02f,+8.03639963e-02f,+1.16451263e-01f,-1.90604672e-01f,-2.62767449e-02f,
-3.03795516e-01f,-1.45138994e-01f,+5.81117766e-03f,+3.48213613e-02f,+2.78591573e-01f,
-6.08573794e-01f,-7.04585910e-02f,-1.30101621e-01f,-2.45703280e-01f,+9.52397808e-02f,
-4.32160050e-02f,-8.67835879e-02f,+1.92789305e-02f,-7.98392713e-01f,-1.09243505e-01f,
-2.57244378e-01f,+5.30273393e-02f,+2.76005447e-01f,-8.37722719e-02f,-3.87131162e-02f,
+5.91111071e-02f,+1.24499075e-01f,-3.56560141e-01f,-4.40387040e-01f,+8.84875581e-02f,
+5.66021055e-02f,+2.23895907e-02f,+1.05017416e-01f,+1.67837068e-01f,+2.29153708e-01f,
+3.07819862e-02f,+4.05391395e-01f,-1.75404936e-01f,+8.04291591e-02f,-1.64681107e-01f,
-4.97115821e-01f,+3.36228758e-01f,+8.88474565e-03f,+1.44237459e-01f,+4.80493903e-02f,
+4.54766154e-02f,-4.28952456e-01f,-1.27997085e-01f,+1.21325940e-01f,-1.11019373e-01f,
-3.26926447e-02f,-1.01495422e-01f,-9.11371224e-03f,+3.90685797e-02f,+6.68543652e-02f,
-5.26012897e-01f,-4.26162094e-01f,+2.33633667e-01f,+1.04985915e-01f,-7.51987323e-02f,
+2.16331154e-01f,+3.95146847e-01f,+5.01776576e-01f,+1.95411086e-01f,-1.19389012e-01f,
-1.89983055e-01f,-1.11785993e-01f,+7.72441477e-02f,+2.73358583e-01f,-1.96655482e-01f,
-6.66651547e-01f,-3.98471281e-02f,-1.69652551e-02f,-3.31019670e-01f,-7.85853267e-01f,
-1.27889857e-01f,-3.84269476e-01f,-2.87776917e-01f,+1.39895618e-01f,-8.76130611e-02f,
-9.12235752e-02f,-6.55932277e-02f,-3.26442093e-01f,+2.31337130e-01f,+1.83682814e-02f,
+3.94759506e-01f,-5.51785156e-02f,+1.72185406e-01f,+8.76576751e-02f,+9.69519466e-02f,
+1.66639358e-01f,-4.89985943e-02f,-9.23886970e-02f,-7.54359588e-02f,-9.27358195e-02f,
-1.93637848e-01f,+2.42835935e-02f,-1.44240096e-01f,+8.43668878e-02f,-2.78177746e-02f,
+4.84467521e-02f,+3.75477970e-01f,-2.03847401e-02f,+5.11010438e-02f,-2.74887741e-01f,
+8.81895944e-02f,+1.35695994e-01f,-7.88996294e-02f,-1.34466961e-01f,-1.91566601e-01f,
-1.27147898e-01f,+2.35181645e-01f,-2.80417740e-01f,+1.38083443e-01f,-1.54882252e-01f,
+4.09059048e-01f,-1.33494288e-01f,-3.47318560e-01f,-3.14746201e-02f,+5.87557331e-02f,
+3.70074391e-01f,+9.16094407e-02f,-1.52189925e-01f,+4.26522553e-01f,-2.22074747e-01f,
-3.77140380e-02f,+3.41085821e-01f,-2.74700910e-01f,+5.29300713e-04f,+5.87191880e-02f,
-2.12488070e-01f,-5.52377515e-02f,-1.60633121e-02f,-3.96293938e-01f,+1.41281337e-01f,
+6.77659735e-03f,-1.18424572e-01f,-5.95544688e-02f,-6.79858744e-01f,-7.89878607e-01f,
-1.96807936e-01f,-6.81533456e-01f,+3.63792360e-01f,+5.66337168e-01f,+8.35221335e-02f,
+1.20709166e-01f,-2.75421739e-01f,-1.03579737e-01f,+1.81151733e-01f,-2.82087266e-01f,
-9.62641910e-02f,-2.48833150e-01f,-2.57077634e-01f,+4.95147668e-02f,+6.34909630e-01f,
+1.41563222e-01f,-1.32401198e-01f,+4.36764359e-01f,-2.88810521e-01f,+4.60142270e-02f,
+2.69907583e-02f,+2.62801975e-01f,+1.56326279e-01f,-1.15006529e-01f,-3.58929895e-02f,
+1.18009731e-01f,+3.48288685e-01f,-4.97521698e-01f,+4.52794544e-02f,-2.78032064e-01f,
+1.36110991e-01f,+2.80704685e-02f,+1.84038207e-01f,+2.57189244e-01f,+3.17388833e-01f,
+1.33290347e-02f,-2.43270084e-01f,-4.98562381e-02f,-3.87579590e-01f,+2.21895680e-01f,
-2.06497610e-02f,-2.70516932e-01f,+1.41393198e-02f,-1.72714427e-01f,+2.54034009e-02f,
-1.30935773e-01f,+1.75142422e-01f,+6.80902749e-02f,-7.69420087e-01f,+4.97990921e-02f,
+2.99105585e-01f,-1.16057128e-01f,+4.49050739e-02f,+5.21171205e-02f,-3.98455083e-01f,
+4.37014878e-01f,+3.61647233e-02f,+7.66830593e-02f,-3.92540485e-01f,+4.81642604e-01f,
-4.33415966e-03f,-1.79209441e-01f,+1.76272035e-01f,+7.06919655e-02f,-2.20421311e-02f,
+1.01973929e-01f,-6.10961765e-02f,-2.42052916e-02f,-2.93832928e-01f,+4.69405800e-01f,
+4.95236069e-01f,-2.40315750e-01f,+1.17990971e-02f,+4.62128073e-01f,-1.45340681e-01f,
-1.36290953e-01f,-2.02266425e-01f,+2.50759721e-01f,-3.82852048e-01f,-7.05268979e-02f,
-8.51369053e-02f,+4.34935033e-01f,+1.60102621e-01f,-2.47362256e-01f,-4.44992512e-01f,
-1.17080972e-01f,+1.33477867e-01f,-1.48333639e-01f,-6.77388981e-02f,+1.61297381e-01f,
-5.36763147e-02f,+1.95041932e-02f,+2.74093091e-01f,-6.06774241e-02f,+2.01048583e-01f,
-1.01216942e-01f,+1.79547444e-01f,-1.31300867e-01f,+2.17287689e-01f,+1.82040200e-01f,
-1.75178563e-03f,+1.56406879e-01f,-6.21375501e-01f,-1.23297989e-01f,+1.72285289e-01f,
+2.49307513e-01f,+2.76978940e-01f,-8.20157602e-02f,+5.02828620e-02f,-1.08031586e-01f,
+3.92959446e-01f,-6.11102819e-01f,-1.06820464e-01f,+2.27984712e-02f,-1.83973126e-02f,
-1.00334294e-01f,-6.45798892e-02f,-2.49271318e-01f,-1.49049228e-02f,-4.61016744e-02f,
-5.81170738e-01f,+3.79970074e-02f,-8.89160931e-01f,-1.95574656e-01f,+3.26574296e-01f,
+1.01461910e-01f,+4.12276655e-01f,-3.36658992e-02f,-5.55455275e-02f,-1.30760610e-01f,
-1.75616682e-01f,-6.18479960e-02f,+6.87253848e-02f,+6.50587603e-02f,-1.30734757e-01f,
-1.15671791e-01f,-4.19729874e-02f,+8.18582699e-02f,+1.47591144e-01f,-1.55552894e-01f,
-3.10319234e-02f,-3.61891724e-02f,+1.91253275e-01f,-7.52054825e-02f,+4.44512255e-02f,
-2.08500877e-01f,-5.42520322e-02f,-3.88646334e-01f,-8.84414017e-02f,+3.33449841e-01f,
-2.32005477e-01f,+1.75862029e-01f,-4.89026695e-01f,+1.01402506e-01f,+1.98137295e-02f,
+2.40318701e-01f,-1.28611371e-01f,+1.60879102e-02f,-5.34264088e-01f,-1.13578133e-01f,
-1.99858636e-01f,-2.12854072e-01f,+1.21824034e-01f,-3.11880466e-02f,-5.63659519e-02f,
+1.73299119e-01f,+4.79856580e-02f,+7.58313313e-02f,+1.44958198e-01f,-5.17188907e-01f,
+2.78961271e-01f,+8.51656795e-02f,-6.93354458e-02f,+3.78380418e-01f,+1.98167711e-01f,
+1.91490293e-01f,-6.56088963e-02f,-2.26153061e-01f,-2.11369470e-01f,+3.06039721e-01f,
-9.17738304e-02f,-2.12267160e-01f,+2.75840938e-01f,-1.51585519e-01f,-6.61191791e-02f,
-9.09818560e-02f,-1.98117644e-01f,+3.50946598e-02f,-1.91137902e-02f,-5.28484164e-03f,
+2.07724050e-01f,-4.33880165e-02f,-1.21134520e-02f,-5.26349433e-02f,-1.64521225e-02f,
+3.26782167e-01f,+1.06617235e-01f,-3.58910710e-01f,-3.08033407e-01f,-9.20325220e-02f,
-3.77103448e-01f,+2.21403897e-01f,-5.21414727e-02f,-1.86263204e-01f,+9.76821501e-03f,
-6.10748045e-02f,+1.69050530e-01f,-2.61312425e-02f,-2.12299585e-01f,+2.00737789e-02f,
-7.07539693e-02f,+1.15648024e-01f,+3.21444124e-02f,-1.20882854e-01f,-2.31388137e-01f,
-2.12216116e-02f,-4.60892528e-01f,-1.47904649e-01f,+2.57330000e-01f,+3.47020775e-02f,
-1.18320897e-01f,+2.24251911e-01f,-4.14423972e-01f,+4.04603453e-03f,-1.11958630e-01f,
-1.79541916e-01f,-1.08969003e-01f,+3.27000231e-01f,+1.61704138e-01f,-8.97061452e-02f,
+9.25944448e-02f,+2.00645491e-01f,+1.74923569e-01f,+1.21492885e-01f,+1.34108409e-01f,
+4.39384058e-02f,+6.93889037e-02f,-7.77418315e-02f,+2.14509323e-01f,-7.73437843e-02f,
-1.10255010e-01f,+3.47432971e-01f,-1.10556197e+00f,-9.01738405e-02f,-1.20584235e-01f,
+2.02706009e-01f,-2.80140817e-01f,-1.36089906e-01f,-1.23749740e-01f,-1.09334297e-01f,
+3.27497035e-01f,+1.61357433e-01f,+1.28064424e-01f,+2.40282714e-02f,+2.88456231e-01f,
-3.62199575e-01f,+1.18686475e-01f,-1.20594494e-01f,+1.16598710e-01f,-1.18580669e-01f,
-6.08632565e-02f,+3.24583381e-01f,+5.51077537e-02f,+1.95330605e-01f,-1.64765239e-01f,
-8.51919800e-02f,+7.98906311e-02f,-5.57776354e-03f,-3.65114654e-04f,+2.74700046e-01f,
-1.10604703e+00f,+9.01312977e-02f,-3.32690001e-01f,-1.25697525e-02f,+3.32372934e-01f,
+8.26604664e-02f,+6.02273084e-03f,+1.17423549e-01f,-4.65024650e-01f,+4.91540849e-01f,
+2.10273176e-01f,+1.04545549e-01f,-5.24751067e-01f,+1.08657968e+00f,-2.74633933e-02f,
-4.86720026e-01f,+1.30262122e-01f,+2.42823049e-01f,-2.78654873e-01f,+2.97998399e-01f,
-6.19625807e-01f,+1.99174792e-01f,+2.85465699e-02f,-2.85779089e-01f,+6.06051795e-02f,
-2.16836363e-01f,+6.70783967e-02f,-1.10378169e-01f,+1.11920975e-01f,+7.72811696e-02f,
-1.85431913e-01f,+1.88226193e-01f,+3.36014777e-02f,+6.12188503e-03f,+6.80476576e-02f,
-4.05434459e-01f,+1.09225519e-01f,+1.78978637e-01f,+2.86758691e-01f,+6.99302852e-02f,
+1.01249382e-01f,-2.90451616e-01f,-1.98634222e-01f,-3.32969725e-01f,-1.02302507e-01f,
-5.58335781e-02f,-4.51100394e-02f,+2.27386221e-01f,-2.96571881e-01f,+6.34132475e-02f,
-1.87847335e-02f,-1.46151915e-01f,-5.26027441e-01f,-2.06949219e-01f,-1.55537993e-01f,
-3.33009601e-01f,-4.38434064e-01f,-3.14785470e-03f,-3.44485909e-01f,-2.79086500e-01f,
-1.74864322e-01f,-8.83297175e-02f,-5.40016070e-02f,+9.50120855e-03f,-1.23644657e-02f,
-3.42803411e-02f,-5.11518419e-01f,+4.28579152e-01f,+1.95491388e-01f,-7.56689236e-02f,
+1.35982707e-01f,+1.60917744e-01f,+2.11939454e-01f,-8.78885016e-02f,+2.12352931e-01f,
-3.05586994e-01f,+4.72267978e-02f,-3.99577580e-02f,+8.98452774e-02f,-2.27414861e-01f,
+9.47954580e-02f,+3.85987088e-02f,+3.66442627e-03f,-5.60539305e-01f,-4.23616976e-01f,
-3.30445648e-04f,-2.43265748e-01f,+1.53442994e-01f,+2.52580523e-01f,-1.09665247e-03f,
-1.44762006e-02f,+1.63968623e-01f,-4.27099496e-01f,+1.26716882e-01f,+1.00080553e-03f,
-8.68013278e-02f,-2.33995959e-01f,+3.12030077e-01f,-5.29097840e-02f,+4.88681309e-02f,
+8.70635733e-02f,-6.17749989e-02f,+3.23692083e-01f,+1.25761941e-01f,+5.83248101e-02f,
-3.29685509e-01f,+1.85481429e-01f,-4.52565342e-01f,-4.12550904e-02f,-1.56524986e-01f,
+4.33313772e-02f,-1.10758714e-01f,-1.73980817e-01f,-3.15832458e-02f,-2.16390789e-01f,
+1.14860781e-01f,+4.55476612e-01f,-2.45426339e-03f,-2.86371503e-02f,-2.39345968e-01f,
+3.75110447e-01f,+5.18360995e-02f,-2.46523455e-01f,+4.37127531e-01f,-2.08773211e-01f,
-1.66691869e-01f,+1.60216436e-01f,+4.54502665e-02f,+2.34741330e-01f,-2.09526509e-01f,
+3.25181961e-01f,+1.86804324e-01f,-1.95483297e-01f,-2.26298273e-01f,+1.74563620e-02f,
+2.62394190e-01f,+6.25808118e-03f,+4.52465639e-02f,+6.40840158e-02f,+1.76821843e-01f,
-4.40408468e-01f,-4.65597883e-02f,+3.05240244e-01f,+7.65371993e-02f,-3.60079370e-02f,
+4.31603612e-03f,+1.07898809e-01f,+1.27344504e-01f,+2.03428462e-01f,-6.63065314e-02f,
-9.94208734e-03f,-3.33874702e-01f,+4.65556048e-02f,-1.93389505e-01f,+4.14421596e-02f,
-1.56213313e-01f,-4.41351682e-01f,+9.02951136e-02f,+2.19135918e-02f,+3.81090969e-01f,
+1.62019730e-01f,-4.34034914e-01f,+1.80404827e-01f,-2.05089562e-02f,-1.98980644e-01f,
-2.56768852e-01f,+2.76028290e-02f,-6.70603588e-02f,+1.74749032e-01f,-2.73811948e-02f,
+3.48918229e-01f,+2.53600121e-01f,+3.84528488e-01f,+5.35156950e-02f,-7.80730471e-02f,
+1.12012468e-01f,+3.78649950e-01f,+5.64975329e-02f,-3.47063571e-01f,+4.76430625e-01f,
-1.95373908e-01f,+6.44512698e-02f,+1.77113950e-01f,-1.81268025e-02f,+4.76015300e-01f,
-1.51580989e-01f,-6.72902679e-03f,+2.43386507e-01f,-4.23465431e-01f,+2.67857552e-01f,
-3.71134311e-01f,+3.33177269e-01f,+3.36615980e-01f,-1.45172002e-02f,-8.11802149e-02f,
+1.33531749e-01f,-2.10878178e-01f,-2.25590318e-02f,-3.02069131e-02f,+2.69526660e-01f,
-1.93173036e-01f,+4.65725511e-02f,-8.41082186e-02f,-8.61697923e-03f,-7.26884827e-02f,
+3.60817760e-01f,-3.39626193e-01f,-1.73987240e-01f,+1.43220186e-01f,+5.53488545e-02f,
-2.60883570e-01f,+7.86070898e-02f,-4.69671786e-01f,+2.82595515e-01f,-2.42036521e-01f,
-3.92093897e-01f,-1.31692037e-01f,+7.63001144e-02f,-6.34426400e-02f,+2.94408739e-01f,
+3.67664069e-01f,-1.66978722e-03f,-3.76546346e-02f,+7.01823756e-02f,-4.17175174e-01f,
+8.29741433e-02f,-3.08325529e-01f,+2.51020730e-01f,-3.20034206e-01f,+9.40195248e-02f,
-9.42565352e-02f,-2.23452240e-01f,+2.10409030e-01f,+6.48455927e-03f,+7.04734623e-02f,
-2.53217965e-01f,+3.54394019e-01f,+6.53357059e-02f,-3.13561946e-01f,-9.59053487e-02f,
-3.83939624e-01f,+1.04699403e-01f,+1.57559097e-01f,-1.21680103e-01f,-1.13815732e-01f,
+2.71071285e-01f,+2.17095450e-01f,-9.26858485e-01f,-2.86867525e-02f,+7.66923279e-02f,
-1.44240782e-01f,-3.63198161e-01f,+2.09358186e-01f,+7.98374116e-02f,-8.23985815e-01f,
-4.03238326e-01f,-5.95035255e-02f,-6.33410513e-02f,+1.63051970e-02f,+1.98390931e-01f,
-9.26156808e-03f,+2.68517733e-01f,+4.46263969e-01f,-1.70565203e-01f,-3.94199267e-02f,
-1.03217095e-01f,-3.97229493e-01f,-4.04589251e-02f,-4.44263190e-01f,-2.93420386e-02f,
+3.17928404e-01f,+2.19901904e-01f,+2.99441107e-02f,-2.78744251e-01f,+1.26978248e-01f,
-1.11585118e-01f,-7.34212577e-01f,+2.03446448e-02f,-1.06783761e-02f,-3.09527010e-01f,
+1.43178120e-01f,-1.53149202e-01f,-1.37253284e-01f,-1.00088276e-01f,+3.24467570e-01f,
-1.30887970e-01f,-2.02817842e-03f,-3.13511163e-01f,-2.60806233e-01f,+3.16754013e-01f,
+4.13981795e-01f,+1.41029760e-01f,-6.49926215e-02f,+2.73171246e-01f,+1.87123284e-01f,
-3.36814672e-01f,+3.60234752e-02f,+1.05601318e-01f,-1.21548340e-01f,+1.81703970e-01f,
-3.28051746e-02f,+5.70573434e-02f,+2.26736903e-01f,+1.50507018e-01f,-4.49694782e-01f,
-3.48706454e-01f,-3.38957645e-02f,-4.51780468e-01f,-8.36602692e-03f,-3.98441441e-02f,
-4.05756943e-02f,+1.25594258e-01f,-2.91841030e-01f,+1.14683788e-02f,-9.71140154e-03f,
-2.08575740e-01f,+1.29140750e-01f,+3.35155249e-01f,-1.92669675e-01f,+3.33459616e-01f,
+2.78903488e-02f,+2.42980629e-01f,-9.50173438e-02f,-1.93262077e-03f,-5.03618419e-01f,
-2.32593790e-01f,-3.33205760e-01f,-8.22560489e-02f,-4.03362840e-01f,+2.23450109e-01f,
+2.82188803e-01f,+2.78907791e-02f,-3.23778421e-01f,+1.85282737e-01f,+1.27356555e-02f,
-5.44518054e-01f,+1.52021617e-01f,-1.12410560e-01f,-1.71655715e-01f,+5.05154114e-03f,
-3.76033425e-01f,+6.25585094e-02f,+2.39088889e-02f,+4.81255591e-01f,-7.87619799e-02f,
-6.19355679e-01f,-4.34090376e-01f,+1.21973559e-01f,-2.75179833e-01f,+5.87875843e-02f,
-3.57870595e-03f,-3.15362781e-01f,-5.10686159e-01f,-5.73411398e-03f,-1.04137290e+00f,
-1.40054837e-01f,-5.64147651e-01f,+1.36389479e-01f,+7.26426318e-02f,+3.09729669e-02f,
+3.73812139e-01f,-1.05259381e-01f,-2.11224630e-02f,+4.54675257e-02f,+5.13176858e-01f,
+7.99933076e-02f,-4.01539028e-01f,+1.63289625e-02f,+1.46867841e-01f,+2.30937777e-03f,
+8.72290730e-02f,+2.16913894e-01f,+3.29636037e-01f,+1.67710871e-01f,+1.34041339e-01f,
-1.65005594e-01f,+2.88630664e-01f,+1.24371387e-01f,-1.29553959e-01f,-1.51000619e-01f,
-5.53729177e-01f,-3.17185884e-04f,-1.55211568e-01f,-1.74868405e-01f,-7.23144650e-01f,
-8.75328258e-02f,+5.19873500e-02f,-5.22580445e-01f,-1.05188079e-01f,+6.73605055e-02f,
-1.45749941e-01f,-1.69647206e-02f,-1.81881160e-01f,-1.12425655e-01f,-1.54460326e-01f,
+4.44854088e-02f,+1.09364621e-01f,-6.51750341e-02f,-1.20676406e-01f,+5.50717935e-02f,
+1.03440441e-01f,-1.81183770e-01f,-3.53890844e-02f,+8.53759050e-02f,-3.35649326e-02f,
+3.03336587e-02f,+9.86309350e-02f,-2.72619836e-02f,+1.36187837e-01f,+4.62751091e-02f,
+5.58719337e-01f,+1.19303815e-01f,-9.71345678e-02f,+2.44821072e-01f,+3.05920124e-01f,
-9.03435722e-02f,+2.21700087e-01f,+2.77373865e-02f,-1.50594087e-02f,-7.43534625e-01f,
+5.05908318e-02f,-7.37088025e-02f,+2.97614574e-01f,+2.15822294e-01f,+3.82962227e-02f,
-2.94878073e-02f,-9.85490903e-02f,+1.70907229e-01f,-8.19503441e-02f,-1.29714057e-01f,
-7.65759587e-01f,+1.08928978e-01f,+2.52039582e-01f,+4.89792526e-02f,+1.83730200e-02f,
+1.46867439e-01f,+6.27238810e-01f,-3.75886887e-01f,-2.16662794e-01f,-3.42765749e-01f,
-4.65126783e-01f,+3.40669423e-01f,-3.72608721e-01f,-1.32951513e-01f,+3.04191172e-01f,
+3.65289785e-02f,-9.15982276e-02f,+3.80201817e-01f,-3.60310107e-01f,-5.66457100e-02f,
-3.85508746e-01f,+4.67406482e-01f,+3.24763358e-01f,+2.90141813e-02f,-9.84976366e-02f,
+7.66618848e-02f,-4.59163308e-01f,+3.70165080e-01f,+1.39628537e-02f,-6.53908551e-02f,
-2.83765107e-01f,+2.37448011e-02f,-1.45182967e-01f,+9.79504287e-02f,+3.51729661e-01f,
+2.55381763e-01f,-2.36631021e-01f,-7.93526024e-02f,-1.15533650e-01f,-1.82321807e-03f,
+6.36714697e-02f,-5.35823405e-01f,-2.80152678e-01f,-1.97394818e-01f,+1.22638196e-02f,
-1.49732158e-01f,-8.42743441e-02f,-1.15450330e-01f,-1.54740572e-01f,-1.11892335e-01f,
+1.28362581e-01f,-6.74494654e-02f,-4.11144197e-02f,-3.28009695e-01f,-2.73940206e-01f,
+3.83092552e-01f,+1.70655444e-01f,+8.05089399e-02f,-2.10679740e-01f,+3.99382293e-01f,
+2.39829347e-01f,-2.55602181e-01f,+1.23099312e-01f,+1.65445983e-01f,+1.88646406e-01f,
+1.82908118e-01f,-4.61640060e-02f,+3.00635342e-02f,-1.64605156e-01f,-3.31708848e-01f,
-1.72291368e-01f,-2.27300540e-01f,-1.26029760e-01f,-8.53255212e-01f,-2.71653354e-01f,
-8.53482261e-02f,-3.18792835e-02f,-2.33642459e-01f,-1.60714582e-01f,+1.54401436e-02f,
+4.09053192e-02f,+1.10041462e-01f,-4.17560160e-01f,-6.40738070e-01f,-3.58734429e-01f,
-4.71950263e-01f,+2.05325335e-01f,+1.57179773e-01f,+1.16086654e-01f,+5.47340326e-02f,
-1.36874884e-01f,+2.03428745e-01f,-3.23790193e-01f,-3.31155300e-01f,+2.17310220e-01f,
-4.97678280e-01f,+2.46211410e-01f,-1.72816530e-01f,-1.32960841e-01f,+2.31442843e-02f,
+1.55431516e-02f,-4.79787052e-01f,-3.96266282e-02f,-1.48173377e-01f,+6.22293204e-02f,
-4.00405675e-01f,-8.46496746e-02f,-1.39526188e-01f,-9.53659862e-02f,+3.66090000e-01f,
+3.25789481e-01f,-6.29449964e-01f,-3.75547111e-01f,+6.38164729e-02f,+2.60273576e-01f,
-1.80079285e-02f,+2.74982393e-01f,-1.09067522e-01f,+3.99620295e-01f,-1.61758557e-01f,
-1.25659749e-01f,+1.17809609e-01f,+2.69587785e-02f,+3.27234924e-01f,-9.41420272e-02f,
-1.23681106e-01f,+1.95465937e-01f,+2.01669484e-01f,+4.37657386e-02f,-1.36238104e-02f,
+2.59336829e-01f,+7.86857530e-02f,-7.77813673e-01f,-1.49185479e-01f,+4.33696061e-01f,
-1.12515941e-01f,+4.62558344e-02f,+2.15427741e-01f,-4.81369942e-01f,+4.40730274e-01f,
+4.92140278e-03f,-2.97824830e-01f,-3.69829804e-01f,+2.03427181e-01f,-2.27965966e-01f,
-9.95997041e-02f,+1.18793353e-01f,+1.12953886e-01f,-7.52396733e-02f,-9.80515778e-02f,
-5.68949757e-03f,-2.09971994e-01f,+5.20973504e-01f,-2.12442338e-01f,-4.25693721e-01f,
-6.04909360e-02f,+5.13047911e-02f,-7.92771399e-01f,+3.20661724e-01f,-5.92548102e-02f,
-5.98482378e-02f,-4.18959618e-01f,-4.42733496e-01f,-1.77771281e-02f,-1.93026364e-02f,
+7.38395333e-01f,+2.26554468e-01f,-2.83119261e-01f,-2.98025887e-02f,-2.72249002e-02f,
+2.35918850e-01f,-2.04589963e-01f,-1.31534055e-01f,-2.44419221e-02f,-4.84943986e-01f,
-3.60088110e-01f,+1.65161148e-01f,+1.50477305e-01f,+2.79494137e-01f,-2.17424706e-01f,
+1.75608858e-01f,-1.67242825e-01f,-7.89612308e-02f,-1.07431658e-01f,-2.12141201e-02f,
-2.52282113e-01f,-9.17141810e-02f,-1.28336668e-01f,+2.01955765e-01f,-1.06607743e-01f,
+2.59707086e-02f,-3.79043408e-02f,-4.38532270e-02f,+2.39083409e-01f,+2.18894795e-01f,
-5.54147601e-01f,-2.09425613e-01f,-2.61212885e-01f,+1.82948068e-01f,+1.21837102e-01f,
-2.46227667e-01f,-1.63165420e-01f,+6.65004551e-02f,-3.94902267e-02f,-6.56596005e-01f,
-1.55969888e-01f,+7.45966751e-03f,-4.15790111e-01f,+2.75868773e-01f,-5.60138561e-03f,
-4.99837041e-01f,-9.53812450e-02f,-3.26927416e-02f,-7.01444626e-01f,+1.88358501e-01f,
+5.29080369e-02f,-3.72538418e-02f,-2.77570933e-01f,-2.61692047e-01f,+1.93363894e-02f,
-7.92719051e-02f,+3.43818635e-01f,+4.72090617e-02f,-3.61959040e-01f,+3.48734528e-01f,
+8.84075300e-04f,+1.82643041e-01f,-1.27040803e-01f,+2.88749695e-01f,-1.44699246e-01f,
-2.86591619e-01f,+3.34673300e-02f,-9.71367955e-02f,+1.94435284e-01f,+3.14555466e-01f,
+3.73156518e-01f,+1.16598643e-01f,+7.93907344e-02f,+4.95333374e-01f,+1.45556822e-01f,
-9.94128734e-02f,-4.03475791e-01f,-2.25167483e-01f,+3.74549516e-02f,-8.95810872e-02f,
+2.45689750e-01f,+2.26488799e-01f,-6.25076005e-03f,+5.46034127e-02f,-3.61521356e-02f,
-1.07037522e-01f,+1.53333783e-01f,-8.14405024e-01f,-6.71527907e-02f,+3.45249236e-01f,
+1.42604247e-01f,-5.56937456e-01f,+6.25056177e-02f,+4.35333043e-01f,-2.12443799e-01f,
+5.10012396e-02f,-7.25072563e-01f,-6.08127475e-01f,+2.67721955e-02f,+1.93943188e-01f,
-1.82131618e-01f,+3.27860713e-01f,+3.07386041e-01f,+9.06476844e-03f,+1.30038783e-01f,
+2.01985136e-01f,+6.32497072e-02f,-9.97389406e-02f,-2.56307483e-01f,+3.81528556e-01f,
+3.29620298e-03f,-1.04468791e-02f,+1.02814361e-01f,+1.07938401e-01f,+1.53522491e-01f,
+6.08076006e-02f,-3.51283163e-01f,-2.04472899e-01f,+6.70278147e-02f,-6.29726827e-01f,
+1.06815130e-01f,-5.44567145e-02f,-1.28034264e-01f,+8.78573582e-02f,-1.99881554e-01f,
-4.19850647e-02f,-5.63797466e-02f,-2.71536231e-01f,-3.25262100e-02f,-1.24171386e-02f,
-4.59254943e-02f,-7.98441917e-02f,-1.98460236e-01f,-1.56506911e-01f,+3.94025035e-02f,
-3.30621660e-01f,-8.81962925e-02f,+1.92895174e-01f,-1.46471560e-02f,-1.33288711e-01f,
+4.32078242e-01f,-5.64183712e-01f,+1.00500464e-01f,-1.68217629e-01f,-1.05828241e-01f,
-9.75951925e-02f,+1.75279155e-01f,+2.17280969e-01f,-1.00812003e-01f,+5.86031005e-03f,
-1.78648680e-02f,+1.59183219e-01f,-2.23467916e-01f,+3.25611323e-01f,-3.42309773e-02f,
+7.69759119e-02f,+1.57596856e-01f,+9.98698473e-02f,-1.07273355e-01f,+4.41146037e-03f,
+3.32397431e-01f,+3.73116374e-01f,-6.99603781e-02f,-1.52679577e-01f,+1.85153812e-01f,
-4.28686410e-01f,-1.44257665e-01f,-7.96793476e-02f,+2.74286699e-02f,+5.11087894e-01f,
+2.75907278e-01f,+1.47023574e-01f,-8.44973996e-02f,+2.35473618e-01f,-2.56032832e-02f,
-1.30247355e-01f,-1.15677193e-01f,-1.80717528e-01f,+1.30934432e-01f,-2.01288208e-01f,
-5.08555062e-02f,-6.28168225e-01f,-4.15059254e-02f,-1.64652038e-02f,-3.47876191e-01f,
-8.08118731e-02f,-1.34025440e-01f,-8.74068439e-02f,+2.03180328e-01f,-4.85723512e-03f,
-4.48156372e-02f,-5.51741779e-01f,+3.15009892e-01f,+7.35486805e-01f,-1.05856530e-01f,
+2.00550128e-02f,-6.65730760e-02f,-4.56182688e-01f,+3.95655423e-01f,+2.05803454e-01f,
-2.58104447e-02f,-4.84785676e-01f,+7.93690741e-01f,+7.97834843e-02f,+1.18897380e-02f,
+5.04418135e-01f,+1.54825404e-01f,-5.12911558e-01f,-1.17366407e-02f,-4.71533835e-01f,
+3.20200920e-01f,+2.42511258e-02f,-1.27698332e-01f,+1.22125059e-01f,+3.31532598e-01f,
-4.87251841e-02f,+1.52876705e-01f,+4.58147347e-01f,+5.79326181e-03f,-1.92515731e-01f,
-2.08397463e-01f,+1.23764537e-01f,-5.15812868e-03f,-1.93088390e-02f,+4.23633568e-02f,
+6.06520921e-02f,+1.38647109e-01f,+4.77944076e-01f,-5.23019493e-01f,-1.43162742e-01f,
-8.42884853e-02f,-9.06056464e-01f,-7.06937313e-02f,-5.38206458e-01f,+7.25955963e-02f,
+7.45818168e-02f,+1.76036105e-01f,-7.58833289e-02f,+4.96405482e-01f,-3.00074130e-01f,
-3.77865404e-01f,+6.09501958e-01f,-7.31356675e-04f,+5.46652041e-02f,+1.34693414e-01f,
+3.30715388e-01f,-1.09533563e-01f,-7.09551930e-01f,+5.64027250e-01f,-7.11992830e-02f,
-3.08138244e-02f,+1.47828041e-02f,-2.35148752e-03f,+1.23946801e-01f,+2.21567139e-01f,
-7.74925500e-02f,-1.20809540e-01f,+8.91660899e-02f,-1.77245423e-01f,-4.29877460e-01f,
-6.71726987e-02f,-6.30050376e-02f,+2.55461693e-01f,+4.34204429e-01f,-2.23434180e-01f,
-4.40711761e-03f,-3.32589358e-01f,+2.45406538e-01f,-4.03162360e-01f,-1.05303727e-01f,
+2.76832342e-01f,-3.12847123e-02f,-3.33632052e-01f,-1.28315821e-01f,-1.43574819e-01f,
+5.76157048e-02f,-3.10451537e-01f,+3.59734178e-01f,-1.62972696e-02f,-1.44433752e-01f,
+3.85779530e-01f,-4.29204077e-01f,-9.44321975e-02f,+2.57815272e-01f,-1.70010347e-02f,
-5.07297702e-02f,-2.84603089e-02f,+3.29305977e-01f,+1.63432822e-01f,+2.41253108e-01f,
+1.29538011e-02f,+1.50503293e-01f,-4.41408679e-02f,+1.96232229e-01f,-6.53403178e-02f,
-2.54797377e-02f,-1.01464771e-01f,-1.02256298e-01f,+1.16122499e-01f,-1.01606466e-01f,
+1.90049917e-01f,+2.69717008e-01f,-4.34776023e-03f,-3.70829135e-01f,-5.54350987e-02f,
+4.68350381e-01f,-9.07128751e-02f,-3.84518020e-02f,+1.70565054e-01f,+2.48268813e-01f,
-1.36017827e-02f,+2.13178739e-01f,+2.71676166e-04f,-4.21685502e-02f,+2.63581544e-01f,
+8.51500481e-02f,-7.91927576e-02f,-3.67274374e-01f,-3.89580801e-02f,+3.60607088e-01f,
-3.93167734e-02f,+5.86336199e-03f,+1.55692384e-01f,+2.45903768e-02f,+1.83163524e-01f,
+6.28860593e-02f,-4.92674075e-02f,-6.95378706e-02f,+1.69893593e-01f,+2.07696185e-01f,
-6.22268813e-03f,+4.66016054e-01f,-3.68448682e-02f,+1.95565432e-01f,+4.01829295e-02f,
-1.86428409e-02f,+9.46963280e-02f,+3.46191704e-01f,-1.84418331e-03f,-1.91643208e-01f,
-3.66918594e-01f,+3.58997911e-01f,-5.46184517e-02f,-2.82208204e-01f,+2.61541277e-01f,
-7.15315640e-01f,+2.38357075e-02f,-1.02279566e-01f,+1.36897624e-01f,+3.01166534e-01f,
+8.54309797e-02f,+1.21289864e-01f,-2.41851956e-02f,-3.02081048e-01f,-8.66525061e-03f,
-5.13366722e-02f,-8.54133144e-02f,+2.91377693e-01f,+7.54218176e-02f,+3.76789808e-01f,
-2.00440839e-01f,+4.91012454e-01f,-4.97629903e-02f,-1.00852430e-01f,+2.41980121e-01f,
+1.59479246e-01f,+2.22049043e-01f,+3.59325856e-01f,-6.70135953e-04f,-1.82880864e-01f,
+9.41018760e-02f,+1.19669057e-01f,-2.12685123e-01f,-3.53637524e-02f,+1.50902286e-01f,
-3.34469706e-01f,+6.16149530e-02f,-2.48142138e-01f,-1.31577803e-02f,+2.60173291e-01f,
+4.72094193e-02f,+2.59409785e-01f,-1.23423919e-01f,+3.28477062e-02f,-2.80607224e-01f,
+2.37624988e-01f,+7.33333528e-02f,+2.32621506e-01f,-2.36636043e-01f,-7.83322006e-02f,
-2.63656694e-02f,+1.05389301e-02f,+3.63460230e-03f,+2.74926256e-02f,+8.85709301e-02f,
-2.01159656e-01f,+1.49834380e-02f,+2.10733324e-01f,+1.68531805e-01f,-1.34328097e-01f,
+1.46127149e-01f,-2.04616904e-01f,-2.46726602e-01f,-3.25720236e-02f,-3.12800348e-01f,
+2.07439050e-01f,-1.54704183e-01f,+3.47954124e-01f,+3.56119931e-01f,-9.10026729e-02f,
-8.78203660e-02f,+3.77180204e-02f,-2.74260163e-01f,+4.93574530e-01f,+8.78764503e-03f,
-4.80799913e-01f,-1.26840323e-01f,-4.67339188e-01f,+4.15504314e-02f,+2.20926665e-02f,
-3.99510592e-01f,+2.45569617e-01f,-1.29401460e-01f,+1.97018906e-01f,-2.34244522e-02f,
+3.47414583e-01f,+2.52012104e-01f,-2.43267164e-01f,+1.30367234e-01f,-4.19566333e-01f,
-2.44368222e-02f,+8.18248913e-02f,-1.82643521e-03f,+2.58652925e-01f,+1.28690992e-02f,
-3.87136489e-01f,-1.23688936e-01f,+1.76960987e-03f,+2.14354411e-01f,+6.86629787e-02f,
+3.02676201e-01f,+1.27598986e-01f,+4.71719727e-02f,-3.35170180e-01f,+2.92925507e-01f,
+2.49087542e-01f,-7.18301758e-02f,-9.54232439e-02f,-2.27047697e-01f,+4.39276872e-03f,
+2.14271322e-01f,+2.07446977e-01f,-1.67737797e-01f,-4.09643114e-01f,+8.17262903e-02f,
-5.17672040e-02f,-1.37593955e-01f,-5.03570974e-01f,+1.43561482e-01f,+3.41691971e-01f,
+2.33386904e-01f,-2.50968486e-02f,+1.79641649e-01f,-6.39407754e-01f,-1.28865197e-01f,
+2.35047996e-01f,-2.55789189e-03f,-3.33270826e-03f,-1.13524735e-01f,-1.48510799e-01f,
-1.39725730e-01f,-2.74232149e-01f,+2.08694160e-01f,+1.76972732e-01f,-2.40449831e-02f,
-1.04006447e-01f,-1.60509989e-01f,-3.23288232e-01f,+2.54127592e-01f,+1.18980575e-02f,
-2.11225197e-01f,-1.46402627e-01f,+4.34275232e-02f,-2.16869429e-01f,-2.82329977e-01f,
+2.21093744e-01f,+1.25456378e-01f,-2.75238812e-01f,+6.09355628e-01f,-4.09010658e-03f,
+6.50515556e-02f,-1.68502435e-01f,-9.55672115e-02f,+8.82500969e-03f,-1.95715889e-01f,
-9.83743072e-02f,+2.39624098e-01f,+1.37594730e-01f,-1.65030155e-02f,-1.91286564e-01f,
+1.71107933e-01f,-1.14346921e-01f,-1.47572100e-01f,-2.45824526e-03f,-1.98532507e-01f,
-3.45771573e-02f,+2.00462952e-01f,+1.85800046e-01f,-1.91280060e-02f,-6.87110126e-02f,
-9.47486535e-02f,-1.62711054e-01f,+3.98151100e-01f,-2.97844589e-01f,+3.45033884e-01f,
-2.23012626e-01f,-1.81201607e-01f,-1.42011642e-01f,+7.83102065e-02f,+4.89689484e-02f,
+9.33751538e-02f,-2.33463541e-01f,-4.41650957e-01f,-1.95336435e-03f,+3.99969034e-02f,
+2.15375572e-01f,+6.54244497e-02f,-1.68698311e-01f,-6.45933375e-02f,-2.92003036e-01f,
+1.25578538e-01f,-8.57775435e-02f,-1.27453059e-01f,+1.36897638e-01f,-8.85880351e-01f,
-1.04447186e-01f,+2.83236980e-01f,-2.36273795e-01f,+2.61134118e-01f,+3.42367768e-01f,
-2.78288454e-01f,-5.67508101e-01f,-1.92127172e-02f,-1.08136415e+00f,-3.94307792e-01f,
-2.98060983e-01f,+1.55646745e-02f,+2.40305886e-01f,+8.89120158e-03f,-1.18199132e-01f,
+1.67676667e-03f,-1.26859456e-01f,-1.79015413e-01f,+4.28001195e-01f,-6.25225483e-03f,
-2.73465961e-01f,-1.12322584e-01f,-4.81207848e-01f,-1.46634236e-01f,+4.37537059e-02f,
-4.54514138e-02f,+2.48589858e-01f,-4.69097421e-02f,+2.33004957e-01f,+2.57549852e-01f,
+2.78593212e-01f,+3.63233417e-01f,+2.30729803e-01f,+8.51384252e-02f,-4.20310199e-01f,
+2.23916575e-01f,-1.55917063e-01f,-8.88734981e-02f,-1.18918858e-01f,-2.20954016e-01f,
-1.73230648e-01f,-7.26898834e-02f,-2.04159155e-01f,+1.83014065e-01f,-1.00205630e-01f,
+4.96140905e-02f,-4.76785004e-02f,-1.27920315e-01f,+6.70555308e-02f,+5.26707135e-02f,
-1.80160835e-01f,-1.07196458e-01f,+2.41540615e-02f,-3.59925888e-02f,+7.14946538e-02f,
-2.82216907e-01f,+2.17081234e-01f,-2.05294207e-01f,+3.45869362e-02f,+8.26719999e-02f,
+1.02361292e-01f,-2.09181473e-01f,+1.50640726e-01f,+1.24296146e-02f,+1.80140093e-01f,
+2.65539259e-01f,-3.99198443e-01f,+5.75752519e-02f,+1.21320434e-01f,-1.35941893e-01f,
-8.23772028e-02f,+1.75099760e-01f,-5.81239425e-02f,+1.51735812e-01f,+1.42145902e-01f,
+3.30120176e-02f,+2.54002661e-01f,-2.87265360e-01f,+5.68663925e-02f,-8.14300552e-02f,
+5.19600809e-02f,-4.12499830e-02f,-2.31383909e-02f,-1.18807063e-01f,+3.76602143e-01f,
-3.03376675e-01f,+1.25837624e-01f,+1.07354619e-01f,-5.95947579e-02f,+1.30625904e-01f,
+3.31549197e-01f,-1.42167611e-02f,-1.29962713e-01f,-3.03454667e-01f,+2.37025023e-01f,
+1.50284439e-01f,+2.98912197e-01f,-2.69833714e-01f,+2.45865926e-01f,+2.01296270e-01f,
-9.78885517e-02f,-1.90794408e-01f,-4.75890100e-01f,-1.65892541e-02f,-2.63714671e-01f,
-4.48697001e-01f,+4.47839141e-01f,-1.50263354e-01f,-1.89698674e-02f,-2.34298572e-01f,
-3.88847947e-01f,+2.88996816e-01f,+6.34442121e-02f,-8.75667855e-02f,-3.55183959e-01f,
-1.64536778e-02f,-3.49659860e-01f,+1.58917084e-01f,+6.42448485e-01f,-3.79854470e-01f,
-6.03848733e-02f,+5.19728996e-02f,+2.31506433e-02f,+2.76965290e-01f,-3.39015305e-01f,
-1.19749032e-01f,+2.35325202e-01f,+3.34020853e-01f,+2.68763341e-02f,+1.02787577e-01f,
-7.79580235e-01f,-9.69091281e-02f,-3.06774616e-01f,+2.08362311e-01f,+2.07727209e-01f,
-4.19646502e-02f,-1.56707123e-01f,-3.28328878e-01f,-3.07483971e-01f,+4.22298968e-01f,
+4.54705238e-01f,-2.21812099e-01f,-2.37333432e-01f,+3.98981832e-02f,-8.82134885e-02f,
+1.03527322e-01f,-8.83588742e-04f,-2.20445041e-02f,-2.69938529e-01f,+1.31714523e-01f,
+4.53972183e-02f,-2.79435609e-02f,-6.94390476e-01f,-1.45972461e-01f,+3.86213921e-02f,
-1.07803205e-02f,+2.54936260e-03f,-6.40756905e-01f,-2.35068034e-02f,-1.00962162e-01f,
+8.95500183e-02f,+2.90927142e-01f,+2.03969460e-02f,-3.99816334e-02f,-1.87657978e-02f,
-2.09334537e-01f,-3.06415468e-01f,-6.78186238e-01f,-3.35041612e-01f,-8.81650567e-01f,
+2.96340674e-01f,+3.20606887e-01f,-1.32452240e-02f,-3.09140712e-01f,-4.28574206e-03f,
-3.00102644e-02f,-2.13373192e-02f,+2.00161755e-01f,-2.65218198e-01f,-2.64682084e-01f,
-1.92942530e-01f,+2.36326993e-01f,-3.43030065e-01f,+2.44598705e-02f,-8.11298788e-02f,
+2.81299144e-01f,-8.73968601e-02f,-2.33696140e-02f,-9.18341726e-02f,+1.96185678e-01f,
-2.18237713e-01f,-2.14732643e-02f,-8.83505046e-02f,+2.11688280e-01f,+3.61642599e-01f,
-8.73052239e-01f,+2.30841056e-01f,-1.22481957e-01f,+1.16998412e-01f,+7.55527392e-02f,
+3.87915462e-01f,-8.53283331e-02f,+2.71173596e-01f,+3.12806547e-01f,-1.83882266e-01f,
+1.84566215e-01f,+1.52598828e-01f,-1.17327236e-01f,+1.02011159e-01f,-9.18288901e-02f,
-8.44931044e-03f,+2.24426895e-01f,-5.81211746e-02f,+9.33192819e-02f,+1.36809051e-01f,
+6.52866811e-03f,-4.34601188e-01f,-2.22237572e-01f,+4.82825011e-01f,+3.62070538e-02f,
-2.03331131e-02f,-8.26266129e-03f,-2.79911846e-01f,+1.19469300e-01f,+7.36156479e-02f,
+6.71243891e-02f,-5.49797237e-01f,+1.47244185e-01f,+4.53551253e-03f,+8.66402760e-02f,
+3.95452142e-01f,-1.93607897e-01f,+1.16909795e-01f,-7.38821104e-02f,-4.44268063e-02f,
-6.33944795e-02f,-1.68984324e-01f,+5.63537121e-01f,-2.11096644e-01f,+1.78168282e-01f,
+4.71182428e-02f,+3.18708390e-01f,+2.36352950e-01f,-1.20718256e-01f,-3.36265504e-01f,
+1.26120359e-01f,-2.80312985e-01f,+6.66578710e-02f,+4.14576149e-03f,+2.39605024e-01f,
+2.18509138e-02f,-4.06425558e-02f,+5.26109040e-01f,-5.28881311e-01f,+3.39859456e-01f,
-1.44767106e-01f,+1.89346358e-01f,-2.50036091e-01f,-1.00490391e+00f,+4.35029775e-01f,
-2.03282107e-02f,+1.37579530e-01f,+5.01394451e-01f,+8.54981393e-02f,+7.70820305e-02f,
-1.03698693e-01f,-1.86859503e-01f,+1.35415018e-01f,-2.48922165e-02f,-1.77890569e-01f,
-4.75145519e-01f,-1.28606185e-01f,+3.01165611e-01f,-1.62012175e-01f,-2.78815061e-01f,
+9.74421203e-02f,-1.74567446e-01f,+1.41225949e-01f,+2.06793040e-01f,-5.04441977e-01f,
+4.56395864e-01f,-2.12269247e-01f,+2.27712378e-01f,+9.50608589e-03f,-2.46394217e-01f,
+6.34812638e-02f,-6.62861094e-02f,+9.18056443e-02f,-5.23946285e-01f,-3.26695800e-01f,
-1.08378865e-01f,+3.80700417e-02f,-4.55881953e-01f,+3.16014022e-01f,+1.39272707e-02f,
+1.22413538e-01f,+9.44691338e-03f,-2.52066981e-02f,+1.61602914e-01f,+6.63732737e-02f,
+4.71581444e-02f,+1.66991472e-01f,-2.32795641e-01f,-8.27463269e-02f,-1.19820889e-03f,
+5.51840544e-01f,+9.00008976e-02f,-2.66098082e-01f,+1.81208983e-01f,-4.84603047e-01f,
+8.64656344e-02f,-7.03378990e-02f,+7.77721778e-02f,-2.00016513e-01f,-1.27776355e-01f,
+2.10532993e-01f,-8.76307040e-02f,+2.99277484e-01f,+3.14835608e-01f,-3.91514838e-01f,
+2.88025826e-01f,-3.59057367e-01f,-1.39384314e-01f,-2.29175150e-01f,-3.77439745e-02f,
-2.24603415e-01f,+1.51822984e-01f,-2.57767253e-02f,-4.18140702e-02f,-2.04066008e-01f,
+2.32636422e-01f,+1.83074623e-02f,+4.95776162e-03f,-2.44673919e-02f,-1.58818867e-02f,
+4.41781223e-01f,+2.03780364e-03f,+2.89216992e-02f,+1.34040028e-01f,+2.50992060e-01f,
-8.27085376e-02f,+1.65636778e-01f,+2.15656698e-01f,-4.15603220e-01f,+3.00956100e-01f,
-5.58457412e-02f,+2.33871937e-01f,-5.61786532e-01f,+1.83780730e-01f,+1.10272333e-01f,
-4.84800637e-01f,-1.75769717e-01f,+4.45960797e-02f,+2.32317418e-01f,+4.39200580e-01f,
-2.30587870e-02f,-1.20363936e-01f,+1.70119271e-01f,+3.68677467e-01f,+8.37375373e-02f,
+1.17442936e-01f,-9.73335877e-02f,+2.22633243e-01f,-1.32903740e-01f,-2.88964033e-01f,
+5.51193118e-01f,-1.44689932e-01f,+1.19085722e-01f,+1.41809002e-01f,-9.51755866e-02f,
+1.14712119e-01f,+1.24892116e-01f,+1.04896724e-01f,-6.59556985e-02f,-3.80788714e-01f,
-1.01214655e-01f,+1.72181278e-02f,-1.18590482e-01f,+3.28941613e-01f,-5.16282320e-02f,
-1.76282432e-02f,+4.75711554e-01f,+2.09309176e-01f,-6.67811325e-03f,-2.87636727e-01f,
-3.10064346e-01f,+4.10016567e-01f,+3.34371626e-02f,+1.30097242e-02f,+3.53230089e-01f,
-5.41132927e-01f,-2.96273399e-02f,+1.63260028e-01f,-7.82614648e-02f,-1.82333454e-01f,
+1.84310496e-01f,+1.42931730e-01f,+1.80206865e-01f,-5.63872270e-02f,-4.43709753e-02f,
+3.25591452e-02f,-3.67005438e-01f,+1.85451120e-01f,+5.10322452e-02f,+1.44125178e-01f,
+3.91606659e-01f,+4.98681553e-02f,-2.34145910e-01f,-6.64620399e-02f,+6.51443154e-02f,
+5.79478800e-01f,-1.39752012e-02f,-1.23071037e-01f,+2.61378307e-02f,-7.91183650e-01f,
-7.46151954e-02f,+7.69221932e-02f,-1.95100665e-01f,+4.10906553e-01f,+2.70515174e-01f,
+3.28206718e-01f,-5.65167191e-03f,+3.47714156e-01f,+2.56217301e-01f,-9.11424085e-02f,
+1.27173856e-01f,-3.24985296e-01f,+7.21203163e-02f,-1.07687622e-01f,-1.08707845e-01f,
-2.83856630e-01f,-3.60928103e-02f,-2.63971031e-01f,-1.67265862e-01f,+3.34017068e-01f,
+2.59625912e-01f,+6.80062547e-02f,+3.00186753e-01f,+6.59434140e-01f,+2.33696774e-02f,
-2.34684721e-01f,+1.14374002e-02f,+1.19018912e+00f,-7.04901898e-03f,+1.04681058e-02f,
-1.87948599e-01f,-6.97975278e-01f,+1.84780732e-01f,+3.53586674e-01f,-1.20195672e-01f,
-2.84753114e-01f,+3.99778277e-01f,-5.53447530e-02f,+3.66546601e-01f,+9.86830652e-01f,
+9.85765606e-02f,-6.86903656e-01f,-1.75350010e-01f,-5.89214921e-01f,+1.55177191e-01f,
+1.62655443e-01f,-8.64457116e-02f,-9.95113701e-02f,-2.69421667e-01f,-5.38352951e-02f,
-4.78439182e-02f,+4.30709630e-01f,-6.35113120e-02f,-1.32651731e-01f,-1.86296314e-01f,
+1.76722035e-01f,+9.32494327e-02f,-7.93964267e-02f,+6.13906048e-02f,+1.30045474e-01f,
+2.28925452e-01f,-1.54653285e-03f,+3.26134294e-01f,-5.81434906e-01f,-2.82107573e-02f,
-2.34468609e-01f,+7.96719417e-02f,+3.23983729e-01f,-1.22796811e-01f,+1.66121870e-02f,
+1.94989160e-01f,-1.45806998e-01f,+1.24739138e-02f,+3.53281647e-01f,-3.03107530e-01f,
+3.06125581e-01f,+1.66599721e-01f,+1.47427432e-02f,-2.26684242e-01f,+2.48781458e-01f,
-1.07608989e-01f,-7.43636549e-01f,-2.96670973e-01f,-4.15377170e-02f,-1.25244752e-01f,
-1.07055888e-01f,-1.66965544e-01f,+7.60933086e-02f,+1.32985041e-01f,+3.59260619e-01f,
-2.78925896e-01f,-4.39419776e-01f,+1.16916336e-01f,-3.97673756e-01f,+8.13630223e-03f,
-3.43610823e-01f,-3.81462723e-01f,+4.69316453e-01f,-1.61637321e-01f,+1.48263365e-01f,
+2.79652804e-01f,-3.07996362e-01f,+1.74218476e-01f,+5.21708764e-02f,+3.29680353e-01f,
-1.09103180e-01f,+2.76853949e-01f,+6.01904746e-03f,-3.91223654e-02f,-4.58642766e-02f,
+1.44602239e-01f,+5.65450907e-01f,+3.59066203e-02f,+6.70458563e-03f,+3.12876433e-01f,
-2.76317388e-01f,-3.33423704e-01f,+1.14790853e-02f,-2.49662399e-01f,+5.47886221e-03f,
+4.95826192e-02f,+1.54258862e-01f,+1.19027331e-01f,+1.09024644e-01f,-7.51442239e-02f,
+4.07579318e-02f,+3.12073141e-01f,-2.92080998e-01f,-7.62753421e-03f,+2.07141951e-01f,
+3.35989535e-01f,-1.81782786e-02f,-8.42556357e-02f,+4.22865860e-02f,+1.49968222e-01f,
+3.69861752e-01f,+6.16527461e-02f,-3.20047736e-01f,-4.36377108e-01f,+8.00551549e-02f,
-3.68766524e-02f,-6.61124513e-02f,-1.97302848e-01f,+2.33231872e-01f,-4.60322425e-02f,
+2.68624783e-01f,-1.86812654e-01f,-1.13113806e-01f,+3.36616248e-01f,-1.08655073e-01f,
-3.81585881e-02f,-3.35806698e-01f,-6.87961057e-02f,+2.19217613e-01f,-1.17314920e-01f,
-1.95108443e-01f,-2.03598753e-01f,+1.09449595e-01f,+1.89686134e-01f,-2.13058516e-01f,
-3.33008200e-01f,-6.32463694e-02f,-2.09068283e-01f,+5.25909066e-01f,-1.13400809e-01f,
+3.20337296e-01f,-1.88047122e-02f,-9.00052488e-02f,+9.09334049e-03f,+1.82057098e-02f,
+2.53508538e-02f,+3.72072369e-01f,-8.04133788e-02f,-2.65321076e-01f,+1.43125832e-01f,
+1.99562773e-01f,+1.66851804e-01f,-4.34350595e-02f,+3.35266620e-01f,-7.04394102e-01f,
+1.44882202e-01f,-1.59719467e-01f,-2.61355519e-01f,-1.22138135e-01f,+3.15899551e-01f,
-2.92610615e-01f,+6.38903320e-01f,+2.52356172e-01f,+2.44818747e-01f,+2.55894233e-02f,
+1.01783596e-01f,+1.23535492e-01f,-4.30950522e-02f,+3.39552134e-01f,-1.54483274e-01f,
+2.92601585e-01f,-8.36858824e-02f,+6.15778975e-02f,+1.41399428e-01f,-6.84425607e-02f,
+1.10125601e-01f,+2.69437462e-01f,-5.39800704e-01f,-3.53033513e-01f,+2.94229329e-01f,
-1.64229751e-01f,-2.45258361e-01f,-1.71987146e-01f,+5.10762408e-02f,-3.70445698e-01f,
+7.62195215e-02f,-1.88170403e-01f,+1.50948361e-01f,-9.73311737e-02f,-5.32055557e-01f,
+2.95040905e-01f,-7.75656477e-02f,-1.25851020e-01f,+1.90981030e-01f,-3.49116474e-01f,
-2.45942399e-02f,-1.33761793e-01f,-2.39143535e-01f,+8.83043036e-02f,-1.11329347e-01f,
-3.27898599e-02f,+2.79122218e-02f,+2.48925954e-01f,+2.42232248e-01f,+9.58672389e-02f,
-1.95727229e-01f,-4.43906248e-01f,+4.56344597e-02f,-4.84175652e-01f,+1.75223246e-01f,
+1.18439972e-01f,+2.07774878e-01f,+3.14622045e-01f,-4.90320534e-01f,-4.98729765e-01f,
-4.58162390e-02f,-1.95516154e-01f,+9.57222432e-02f,+2.67994493e-01f,-3.40748094e-02f,
-4.65530120e-02f,+1.57337636e-01f,-8.07227194e-01f,-4.94554937e-02f,+1.37674451e-01f,
-2.42783740e-01f,+4.39437419e-01f,+1.95049904e-02f,-1.27651915e-01f,+2.68733084e-01f,
+7.55099654e-02f,-1.11066416e-01f,-2.90653169e-01f,+2.26645917e-02f,-1.98585033e-01f,
+1.90436840e-02f,+8.50604698e-02f,+1.10437162e-01f,+3.39815497e-01f,+7.94960186e-03f,
-7.70332962e-02f,-4.17206228e-01f,-2.90402263e-01f,-3.05494279e-01f,-2.44002715e-02f,
+2.92649865e-01f,-3.46907713e-02f,+2.42042437e-01f,-1.17083393e-01f,-1.50923267e-01f,
-2.86071330e-01f,+6.06360137e-02f,+2.70076811e-01f,+1.17965996e-01f,-4.11531217e-02f,
-1.18565299e-01f,-2.55823806e-02f,+4.27675873e-01f,+6.87965080e-02f,-2.41277277e-01f,
-4.60902870e-01f,-1.53347060e-01f,-1.55596331e-01f,-1.46185473e-01f,+1.38446569e-01f,
-2.02037022e-01f,-8.69495273e-02f,-4.16869849e-01f,-4.84668672e-01f,+1.72578186e-01f,
+1.35067269e-01f,+1.05969340e-01f,+5.50784528e-01f,+1.75441951e-01f,-9.82389152e-01f,
-2.16896564e-01f,+7.43636489e-02f,-4.74583119e-01f,-5.68274893e-02f,+9.36026648e-02f,
-6.77631423e-03f,+1.64370343e-01f,+1.08886519e-02f,-9.26100388e-02f,+4.41560112e-02f,
-3.93058985e-01f,-1.58626884e-01f,-1.01783745e-01f,-5.48008382e-01f,+4.19834226e-01f,
+1.79078028e-01f,+2.72671074e-01f,+1.48614511e-01f,-5.42461455e-01f,+1.98720068e-01f,
-7.22865045e-01f,-8.56224895e-02f,+4.82938558e-01f,-4.05171663e-01f,+2.13548481e-01f,
+5.03780320e-02f,-2.76463062e-01f,-1.99397668e-01f,+1.87232375e-01f,+3.83157544e-02f,
+2.74911731e-01f,-5.31389713e-01f,+4.16472219e-02f,-1.18146792e-01f,+7.41947144e-02f,
+4.15409468e-02f,-1.09234013e-01f,-6.89599514e-02f,-4.71270606e-02f,+2.89396346e-01f,
+1.66854754e-01f,+1.89281493e-01f,-7.11105019e-02f,+6.94793388e-02f,+2.63893098e-01f,
-2.07221046e-01f,-4.00157899e-01f,-5.38797826e-02f,-4.28154133e-02f,+3.83583963e-01f,
+1.03703491e-01f,-5.80856919e-01f,-6.49566129e-02f,-8.64145458e-02f,+2.00758681e-01f,
-1.07109085e-01f,+8.51660520e-02f,-4.99593243e-02f,-5.87838702e-02f,+9.08658728e-02f,
-1.29466936e-01f,+4.91816849e-01f,-1.43230185e-01f,-3.59943472e-02f,+1.16146833e-01f,
+3.36714536e-02f,-3.15890819e-01f,-3.71211499e-01f,+5.08810341e-01f,+7.24278241e-02f,
-9.03591454e-01f,+5.81528008e-01f,+1.79650914e-02f,+4.23359036e-01f,+7.75536597e-01f,
-5.09832382e-01f,+5.22645302e-02f,-3.07615697e-01f,+6.79938316e-01f,-3.95784497e-01f,
+7.58987963e-02f,-1.49884045e-01f,-2.00003132e-01f,+3.95238340e-01f,+1.04774684e-01f,
-8.17794204e-02f,+1.09693877e-01f,-7.36641049e-01f,-1.03298672e-01f,-7.77002573e-02f,
+8.20275173e-02f,+5.00254035e-01f,-3.36998552e-02f,+2.21278965e-02f,-1.44091249e-02f,
+3.59544635e-01f,-8.78640264e-02f,-2.65718311e-01f,+6.68735057e-02f,-5.77312708e-01f,
-3.58323812e-01f,-3.67370009e-01f,-2.17775404e-01f,+9.47586298e-02f,+6.83950633e-02f,
+1.32126883e-01f,+4.70792921e-03f,+4.14655685e-01f,-1.84840485e-01f,+5.36731910e-03f,
+4.04258400e-01f,-2.82400608e-01f,+2.50536501e-01f,+4.38541137e-02f,+2.66558051e-01f,
-4.57409173e-01f,-4.57558073e-02f,+3.30772668e-01f,+1.30310670e-01f,-1.88295767e-02f,
-5.61705306e-02f,-1.05190210e-01f,-1.15008302e-01f,-1.84339672e-01f,-5.12272298e-01f,
+1.02507807e-01f,+2.89407894e-02f,+2.46743057e-02f,-1.03576139e-01f,+3.17928046e-01f,
+1.32872378e-02f,+1.18137173e-01f,+4.13658842e-02f,-9.47543561e-01f,-1.25810236e-01f,
-4.87400070e-02f,+9.85726863e-02f,-6.70085251e-01f,-2.81232595e-01f,+1.89604118e-01f,
+3.10881943e-01f,+5.63791059e-02f,+2.22755015e-01f,-7.09858537e-01f,-1.20849676e-01f,
-2.21348032e-01f,-5.56207485e-02f,-5.51819578e-02f,+3.43601331e-02f,+2.01403257e-02f,
+6.04700111e-02f,+9.66316368e-03f,-9.87916216e-02f,+3.87316823e-01f,-3.77190679e-01f,
+5.17811216e-02f,+6.96409270e-02f,-3.07941437e-01f,+3.71340752e-01f,-2.90487230e-01f,
+4.50910181e-01f,+3.02563965e-01f,-6.85266018e-01f,-2.07237929e-01f,+2.55432457e-01f,
+2.13312522e-01f,-4.30282578e-02f,-2.14657232e-01f,-1.17328957e-01f,-4.15082462e-02f,
-2.24741831e-01f,-7.55034626e-01f,-1.38379455e-01f,+1.39399515e-02f,-2.40270585e-01f,
-3.42528701e-01f,-4.91550826e-02f,-1.44379046e-02f,-2.00918257e-01f,+2.63148621e-02f,
-6.23354353e-02f,+3.00281346e-02f,-9.77276787e-02f,+7.05675855e-02f,+1.90630555e-02f,
-2.27211833e-01f,+1.58652617e-03f,-4.06188846e-01f,+9.77609977e-02f,-7.72643089e-02f,
-4.92568780e-03f,-3.10731798e-01f,-2.10239217e-02f,-3.31553742e-02f,+3.84163707e-01f,
-6.76544309e-01f,+1.84492260e-01f,+6.19960949e-03f,-4.19010967e-02f,+4.20663774e-01f,
-7.63518736e-02f,+2.10680842e-01f,+3.16608213e-02f,-1.83455810e-01f,-7.69165382e-02f,
-5.98101281e-02f,-5.72122969e-02f,-1.25936270e-01f,-2.30542973e-01f,-2.11755306e-01f,
+1.14600390e-01f,+8.13182071e-02f,+2.93663144e-01f,+2.77153879e-01f,-1.20094560e-01f,
-1.95025668e-01f,+1.53026106e-02f,-3.55168879e-01f,+1.18135996e-01f,-6.34746701e-02f,
+5.97511902e-02f,+7.63614699e-02f,+2.41627172e-01f,-2.16816626e-02f,-3.09580982e-01f,
-4.70229760e-02f,-2.26386249e-01f,+2.21714638e-02f,-3.88122536e-02f,+1.40019104e-01f,
-1.03066221e-01f,-9.64021832e-02f,+2.26824321e-02f,-2.73839291e-02f,-1.15705887e-02f,
-8.72136652e-01f,-9.97823954e-01f,+2.73349844e-02f,-3.35564047e-01f,+1.27469674e-01f,
+4.66625422e-01f,+4.61458229e-02f,+3.19481492e-01f,-2.73547947e-01f,-1.21517874e-01f,
-7.69755393e-02f,-2.96985775e-01f,-1.53625160e-01f,-1.22463413e-01f,-1.52295098e-01f,
+2.43034214e-02f,+1.06689878e-01f,+2.75780171e-01f,-1.17156968e-01f,+4.20127422e-01f,
-2.33504668e-01f,+1.49481092e-02f,+3.28020751e-01f,+3.27938199e-01f,+6.73330799e-02f,
+3.43509316e-02f,-2.75233900e-03f,+2.18531918e-02f,-2.55981445e-01f,+1.07617326e-01f,
+4.96645689e-01f,-2.19418228e-01f,+1.60513461e-01f,+4.41555418e-02f,+1.29054397e-01f,
+1.25869974e-01f,-4.54333313e-02f,+6.36075363e-02f,+1.11165889e-01f,-5.10174707e-02f,
-2.43676648e-01f,+1.13803841e-01f,-6.31678626e-02f,+4.20370419e-03f,+2.56994277e-01f,
-1.30513713e-01f,-3.21522988e-02f,-7.15503329e-03f,-1.43661901e-01f,-7.78994933e-02f,
-1.26707062e-01f,-2.09573619e-02f,-3.94086093e-01f,+2.52246074e-02f,-1.07361592e-01f,
+1.74296290e-01f,-3.28237265e-01f,+2.25405991e-01f,-1.69567719e-01f,+2.18338277e-02f,
-3.00756186e-01f,+1.64686844e-01f,-1.22771218e-01f,-1.40286714e-01f,-1.25125825e-01f,
+2.16712326e-01f,-7.46783838e-02f,+7.21035376e-02f,+1.04705788e-01f,-2.27180228e-01f,
-4.62803692e-01f,+3.64619106e-01f,+1.92662805e-01f,+2.85865456e-01f,-1.17723837e-01f,
+5.99985242e-01f,-4.12118733e-01f,+5.72682247e-02f,+1.00380354e-01f,+2.34382689e-01f,
-1.19642243e-02f,+2.74837874e-02f,+8.77423491e-03f,+3.73200387e-01f,+1.43146843e-01f,
+3.35158929e-02f,-2.14240048e-02f,+1.21474033e-02f,+1.08588435e-01f,+5.55543341e-02f,
+1.29907727e-01f,+4.18277681e-01f,+2.21993625e-01f,-1.07121684e-01f,-1.04499690e-01f,
-1.92395180e-01f,-1.19482361e-01f,-4.49594319e-01f,+6.69580698e-02f,-1.00902706e-01f,
+2.06945196e-01f,+1.55239344e-01f,+8.80684704e-02f,+2.62616575e-01f,-4.23364490e-01f,
+4.05548364e-02f,-5.87568916e-02f,+3.43765289e-01f,+2.32862949e-01f,+1.46772694e-02f,
-5.61552271e-02f,-2.29417771e-01f,+1.58340320e-01f,+2.42806360e-01f,-7.97262639e-02f,
+1.85249493e-01f,+4.00673598e-02f,+6.57280162e-02f,+1.99064523e-01f,-3.17614883e-01f,
-4.15435657e-02f,+6.65990934e-02f,+1.45981669e-01f,+9.68366265e-02f,-2.74985321e-02f,
+1.41385034e-01f,+2.23042801e-01f,+2.20217407e-01f,-1.58291057e-01f,+1.67053819e-01f,
-1.15141280e-01f,+2.52648771e-01f,-1.76697761e-01f,-4.11668420e-02f,+2.93846995e-01f,
+1.95662767e-01f,-4.17937487e-02f,-2.88902558e-02f,-9.09057632e-02f,-1.38429746e-01f,
+1.10977396e-01f,-1.47011712e-01f,-2.40199462e-01f,+3.20789032e-02f,+1.65739864e-01f,
-1.88007385e-01f,-1.34411836e-02f,-4.39166546e-01f,-1.88548882e-02f,-4.67985511e-01f,
+2.69121528e-01f,+3.06988060e-01f,-1.63304716e-01f,+5.24299964e-02f,-6.34764373e-01f,
-3.38517874e-01f,+3.72746348e-01f,-2.70849075e-02f,+3.40940505e-02f,+2.74526268e-01f,
-5.81932724e-01f,-3.30215618e-02f,+3.65893282e-02f,-1.87154889e-01f,+5.51934317e-02f,
-2.44134590e-02f,+2.61983182e-02f,+1.09721020e-01f,-6.93284795e-02f,-2.67049000e-02f,
+4.95936215e-01f,-3.64900321e-01f,-5.24248220e-02f,+1.91216663e-01f,-3.48485023e-01f,
+3.06820154e-01f,-4.17548753e-02f,+5.14738858e-01f,-8.35318770e-03f,-1.46247387e-01f,
-3.99060667e-01f,-2.27230743e-01f,-7.06527382e-02f,-9.60965529e-02f,+7.29666710e-01f,
-5.29548347e-01f,-1.68993673e-03f,+1.72411531e-01f,-5.53568959e-01f,-1.00373439e-01f,
-1.79096252e-01f,+4.12585847e-02f,-9.38396621e-03f,+9.31848027e-03f,+4.06801067e-02f,
+1.75002500e-01f,-3.33018228e-02f,+1.10863328e-01f,-2.25376830e-01f,+6.32611513e-02f,
-5.42342186e-01f,-1.11712635e-01f,+1.41074602e-02f,+2.88418710e-01f,+1.85655341e-01f,
-8.13518167e-02f,+1.86672091e-01f,-2.41742566e-01f,+2.22170696e-01f,-1.55326545e-01f,
+2.95362547e-02f,-1.26419857e-01f,-2.02627853e-01f,+1.25465207e-02f,-8.61280113e-02f,
-2.86869466e-01f,-1.87441781e-01f,-6.17138669e-03f,+2.36064382e-02f,+4.19263765e-02f,
-1.80174559e-01f,-6.92087188e-02f,-1.16948351e-01f,+1.28374681e-01f,-1.99798629e-01f,
-2.70395204e-02f,+1.25701413e-01f,-1.73884541e-01f,-2.40747496e-01f,-1.53530881e-01f,
-1.17554456e-01f,-4.99953665e-02f,+1.72721878e-01f,+1.09895833e-01f,-2.25249417e-02f,
+2.03487799e-01f,-1.39429094e-02f,-1.19719997e-01f,-7.90324882e-02f,-1.15501501e-01f,
+1.25311390e-01f,+1.93555295e-01f,+6.80797473e-02f,+3.18773985e-01f,-8.38290036e-01f,
+7.66298845e-02f,+7.24095330e-02f,-5.18994071e-02f,+2.45401576e-01f,-6.45870492e-02f,
+5.62252216e-02f,-1.95891663e-01f,+2.01208994e-01f,+1.56410202e-01f,-6.39960170e-02f,
+1.17636837e-01f,+4.15065587e-02f,-1.49161294e-01f,-5.85202686e-03f,-7.68645406e-02f,
+1.14231825e-01f,-2.55964249e-01f,+4.37845066e-02f,+1.58148423e-01f,+4.24014702e-02f,
-2.61890411e-01f,+4.83545773e-02f,+1.86570823e-01f,-3.96189183e-01f,-1.90935060e-01f,
-1.42263725e-01f,-2.68884208e-02f,-2.88892895e-01f,-2.81705372e-02f,-4.69524525e-02f,
+3.98727894e-01f,-9.74410772e-01f,+1.15762493e-02f,+1.56692527e-02f,+5.09242117e-01f,
+2.16307387e-01f,-1.15126528e-01f,-1.29455239e-01f,+2.76071399e-01f,-1.61476731e-02f,
+7.19918132e-01f,+4.46399041e-02f,-3.92509371e-01f,-9.68161285e-01f,+1.87916771e-01f,
+3.15114968e-02f,+3.33135694e-01f,-3.90399814e-01f,+5.19097969e-02f,+7.84776807e-02f,
+1.85259491e-01f,+3.34439546e-01f,-7.14094490e-02f,-4.02403213e-02f,-1.59111954e-02f,
-1.12849306e-02f,+6.89113885e-03f,+2.48415377e-02f,+8.25526193e-02f,+5.28976209e-02f,
+7.63469338e-02f,+2.76575889e-02f,+1.36181310e-01f,+2.15548128e-01f,+9.30766948e-03f,
-4.12824780e-01f,-1.67149365e-01f,-3.82326812e-01f,-2.04194278e-01f,-8.81879106e-02f,
-2.43541613e-01f,-1.41848341e-01f,-1.67211294e-02f,+1.64084911e-01f,-6.84612943e-03f,
-1.79927036e-01f,-6.14109561e-02f,+2.13579163e-02f,+2.86384970e-01f,+2.50667363e-01f,
+2.48392761e-01f,+3.24276797e-02f,-1.11047216e-02f,-4.74339247e-01f,-5.94867282e-02f,
+3.64413559e-01f,-2.99295098e-01f,+4.49280627e-02f,-4.74137515e-02f,+4.55944054e-02f,
+2.16926724e-01f,+1.27831146e-01f,-4.89942841e-02f,-4.30421010e-02f,-2.90069968e-01f,
+2.86226600e-01f,+8.23130906e-02f,+6.54786974e-02f,+3.97023976e-01f,-5.93710784e-03f,
+1.83962256e-01f,-5.04264712e-01f,-3.47124875e-01f,-1.26782820e-01f,-1.18888877e-01f,
+3.96955341e-01f,+1.51573077e-01f,-3.45530540e-01f,-1.37537960e-02f,-1.88295096e-01f,
-1.22123256e-01f,-3.54311734e-01f,-2.85380967e-02f,+3.38965803e-01f,+2.28021234e-01f,
-4.71207537e-02f,-3.73860635e-02f,-2.04159413e-02f,-9.72017944e-02f,-2.44007051e-01f,
+7.76605085e-02f,-1.48822263e-01f,+2.19665200e-01f,-2.95545962e-02f,+8.26466233e-02f,
+2.27896020e-01f,-1.67528510e-01f,-2.55304128e-01f,-2.76731104e-01f,-2.94473410e-01f,
+1.72775567e-01f,+1.52877390e-01f,-5.02395213e-01f,-8.92774612e-02f,+2.19475791e-01f,
-5.98759614e-02f,-2.08272375e-02f,+3.07812374e-02f,-3.00204039e-01f,-2.81022280e-01f,
-7.07480386e-02f,+7.31752366e-02f,-8.31751823e-02f,+1.05083473e-01f,+8.50214586e-02f,
-9.43215266e-02f,+4.04425025e-01f,-4.01301831e-02f,+2.44467054e-04f,-4.09390926e-01f,
+1.73950136e-01f,-4.86490399e-01f,-2.95913905e-01f,+3.45849186e-01f,+2.60563400e-02f,
+2.60301948e-01f,-1.16524726e-01f,-4.35845584e-01f,+7.29727224e-02f,+1.94673121e-01f,
+2.15336993e-01f,+1.85765788e-01f,-3.85727227e-01f,+5.32625914e-01f,+1.77385643e-01f,
+5.63742705e-02f,+2.04745948e-01f,-6.96633697e-01f,-1.01006757e-02f,-4.26945448e-01f,
+8.84148851e-02f,+2.55213886e-01f,-9.57818180e-02f,+1.08219735e-01f,-2.84888864e-01f,
+1.93206266e-01f,-4.06820960e-02f,+3.08430940e-01f,-1.98245242e-01f,-3.00454438e-01f,
-1.13141418e-01f,-6.23468906e-02f,+2.15494484e-01f,+1.12373844e-01f,-1.50683951e-02f,
+3.19740891e-01f,+2.63968974e-01f,+1.63766183e-02f,+2.27406815e-01f,-1.00237515e-03f,
+8.75725970e-02f,-2.97199816e-01f,-5.05527146e-02f,-2.15052683e-02f,+7.07662180e-02f,
+2.25989044e-01f,-7.31055140e-02f,-4.96011525e-01f,+6.43871427e-02f,+2.41946593e-01f,
-7.04899430e-02f,-1.34648547e-01f,+9.12583545e-02f,-3.74443680e-01f,+1.55702606e-01f,
-6.33079767e-01f,+2.32750967e-01f,-2.23456651e-01f,-2.04307549e-02f,+1.02226652e-01f,
+4.55003455e-02f,+2.21819490e-01f,-3.17534477e-01f,+2.11198583e-01f,+2.03146532e-01f,
-1.00054309e-01f,-3.88372540e-02f,-1.80557758e-01f,-2.58180380e-01f,+2.29420945e-01f,
+1.99154526e-01f,-5.48111834e-02f,+2.21128762e-01f,-6.59755111e-01f,+3.84644046e-02f,
-6.15718842e-01f,+4.29016888e-01f,-8.97464436e-03f,-6.67864233e-02f,-7.80770928e-02f,
+6.45806566e-02f,+1.84728712e-01f,+2.33776614e-01f,+5.80015704e-02f,-1.70548528e-01f,
-2.48356119e-01f,+1.63046300e-01f,-1.95306897e-01f,+1.68877721e-01f,-6.40908122e-01f,
+1.52670622e-01f,+3.90973151e-01f,-8.37534070e-01f,-2.49667346e-01f,-2.81003743e-01f,
-1.78628400e-01f,+3.60955633e-02f,+2.23698750e-01f,-1.05134010e-01f,-2.86947042e-02f,
+7.26778880e-02f,-5.03360868e-01f,-1.10586591e-01f,-5.83056808e-02f,+2.30271384e-01f,
+2.78198242e-01f,-4.26014885e-02f,+2.33706329e-02f,+5.32384701e-02f,+2.83777297e-01f,
+7.50166774e-02f,+3.58437467e-03f,-1.69821421e-03f,-1.05318442e-01f,+3.41383636e-01f,
+8.01777318e-02f,+5.26989363e-02f,+1.50135040e-01f,+1.28577739e-01f,-4.70085489e-03f,
-3.90303433e-01f,-3.52840781e-01f,-4.67863172e-01f,+1.32798061e-01f,+2.58182794e-01f,
-2.72693276e-01f,-4.03613716e-01f,-1.30734935e-01f,-2.80687004e-01f,-8.03547651e-02f,
+5.95679209e-02f,+1.04635857e-01f,-5.12367129e-01f,-1.22554787e-01f,-1.20530993e-01f,
+2.23987121e-02f,+3.23441774e-01f,+2.44259208e-01f,-6.09330162e-02f,-1.37146667e-01f,
+1.60790339e-01f,-6.84304163e-02f,-1.95329860e-01f,+9.25206020e-02f,-1.27778485e-01f,
+7.43143260e-02f,+1.51206791e-01f,-5.97333014e-01f,+2.77377367e-01f,+1.60997197e-01f,
+4.30114418e-01f,-6.95645288e-02f,-2.33536720e-01f,+2.11757660e-01f,-1.59501910e-01f,
-5.57147115e-02f,-3.18119600e-02f,+2.20995486e-01f,-9.39787179e-03f,-9.50992852e-02f,
+1.32893831e-01f,+3.49292643e-02f,-2.65826751e-02f,-4.43615764e-02f,-5.74040949e-01f,
-1.33470073e-01f,+2.87474040e-02f,-1.12332709e-01f,-1.51370896e-03f,+3.78193744e-02f,
+1.54670611e-01f,-3.07513684e-01f,-5.01086175e-01f,-1.08389422e-01f,+4.72174078e-01f,
-1.05672956e-01f,+3.25876772e-01f,-1.38153508e-01f,+1.78591162e-01f,+1.72523826e-01f,
-3.23679186e-02f,-4.38660145e-01f,+2.22634554e-01f,-6.00220487e-02f,-2.92498142e-01f,
+1.34716704e-01f,+9.33096837e-03f,+8.30260441e-02f,+7.93865025e-02f,-1.65029347e-01f,
-9.72583741e-02f,-4.47784699e-02f,-5.99873364e-01f,+2.02548593e-01f,+6.92360550e-02f,
+6.61371881e-03f,+9.54006519e-03f,+2.75568739e-02f,+2.26596341e-01f,-2.12889642e-01f,
-1.57908816e-02f,-3.30864370e-01f,-3.56245697e-01f,+3.36269617e-01f,+8.41165930e-02f,
-3.22729647e-01f,+3.65292341e-01f,+3.73539150e-01f,+2.85257131e-01f,-8.30054954e-02f,
+6.28965676e-01f,-3.84122767e-02f,-2.16434553e-01f,+4.88232344e-01f,-9.56151709e-02f,
+4.19479400e-01f,+2.25648597e-01f,-2.20234752e-01f,-3.41977775e-02f,-7.44691938e-02f,
+4.06163454e-01f,-5.19184947e-01f,+3.01225960e-01f,-2.19317749e-02f,-8.60416353e-01f,
+4.76289362e-01f,+1.38137620e-02f,+2.73952872e-01f,+7.32660368e-02f,-6.22329235e-01f,
-1.34520158e-01f,-2.07767233e-01f,+1.01178862e-01f,-2.92169541e-01f,-1.65514484e-01f,
+1.23696595e-01f,-2.65647292e-01f,-3.37274462e-01f,-5.07886529e-01f,-1.04822338e-01f,
-4.55061436e-01f,+4.94728953e-01f,-5.80210611e-02f,-1.99109182e-01f,-9.93828773e-02f,
+5.75843871e-01f,-4.88296263e-02f,+4.24582325e-02f,+1.47118360e-01f,+4.98720378e-01f,
+7.65884295e-02f,-2.89807618e-01f,+1.48660406e-01f,-2.72796929e-01f,+1.81171626e-01f,
-3.72335434e-01f,-1.33602604e-01f,-1.52344272e-01f,-3.70820463e-01f,+2.41740167e-01f,
-1.62206173e-01f,-5.33570826e-01f,+1.23988479e-01f,+2.36900434e-01f,+2.04677090e-01f,
-1.48724824e-01f,-3.19100827e-01f,-1.10099368e-01f,-8.38828459e-02f,-1.85384035e-01f,
+9.12595447e-03f,+4.71482813e-01f,-8.38342011e-02f,+2.33302861e-01f,-1.59180641e-01f,
-1.02162875e-01f,-1.70443207e-01f,-2.83777744e-01f,-4.67289627e-01f,-4.17982489e-01f,
+1.27619952e-01f,+1.24983370e-01f,+3.24154906e-02f,+2.87111580e-01f,-1.86062641e-02f,
+5.60171008e-01f,-1.69033930e-01f,-1.01160192e+00f,-3.35521661e-02f,-2.07713321e-01f,
+4.84156571e-02f,+3.58283162e-01f,+6.52275309e-02f,+1.34608686e-01f,+3.77045155e-01f,
-1.32200196e-02f,-6.45074069e-01f,-7.01360404e-01f,-1.26736879e-01f,-2.44550452e-01f,
+2.62899786e-01f,+2.42063925e-02f,+1.37304273e-02f,+1.81849059e-02f,+7.35202134e-02f,
-2.14552939e-01f,+7.65956342e-02f,-3.99402142e-01f,-8.42668563e-02f,+1.13647081e-01f,
+1.05420426e-01f,-4.20620859e-01f,+1.89326838e-01f,-7.80911669e-02f,-6.10636413e-01f,
+1.35215670e-01f,-1.16340172e+00f,-2.03289285e-01f,-6.74301982e-02f,-4.29600775e-01f,
+6.07700646e-02f,+5.46923757e-01f,+1.92719698e-01f,-1.09417588e-01f,+4.81838286e-01f,
-3.04405808e-01f,-3.97657827e-02f,+2.38937750e-01f,+4.85153228e-01f,-6.39376342e-02f,
-3.55891027e-02f,-2.33995188e-02f,-1.96164921e-01f,-4.10131887e-02f,+2.69789565e-02f,
-1.80136953e-02f,-1.19689703e-01f,+6.45314381e-02f,+3.90538946e-02f,-1.08388238e-01f,
+1.60468876e-01f,-1.19098842e-01f,+3.50465238e-01f,-3.12471718e-01f,-3.28305751e-01f,
-4.00083184e-01f,+4.29820925e-01f,+1.59028053e-01f,+1.64951891e-01f,+1.65239260e-01f,
-2.55781233e-01f,-5.62422425e-02f,-2.90982991e-01f,-1.10382453e-01f,-1.32900611e-01f,
+7.17538735e-03f,+7.15039670e-02f,-1.34842023e-01f,+5.99867441e-02f,-8.28373805e-03f,
-5.18224165e-02f,+7.96600804e-02f,-4.93904687e-02f,-6.73073888e-01f,+1.54808819e-01f,
-2.28741355e-02f,-4.57229726e-02f,-3.86541709e-02f,-1.52142838e-01f,+3.40144157e-01f,
+1.07040472e-01f,-3.48771065e-01f,+1.29294321e-01f,+2.73092628e-01f,-8.60423222e-02f,
+3.18675727e-01f,-2.82298893e-01f,-1.08834364e-01f,-2.69214243e-01f,-1.03470385e-01f,
-1.37602937e+00f,-1.48310959e-01f,+4.05800669e-03f,-2.44159117e-01f,-3.28752726e-01f,
-1.31096601e-01f,-5.02744466e-02f,+6.40113130e-02f,+1.04411051e-01f,-2.00219035e-01f,
-5.34998298e-01f,-3.09808999e-01f,-2.05012634e-01f,-2.64579151e-03f,-1.72661915e-01f,
-4.50188965e-01f,-7.84365460e-02f,-3.00331682e-01f,+1.21710382e-01f,-4.33892310e-01f,
-1.38551801e-01f,+2.32309327e-01f,+2.44176432e-01f,+3.90086591e-01f,+1.69549689e-01f,
-6.79864049e-01f,-1.46006318e-02f,+5.54701239e-02f,-5.26136279e-01f,+6.93322942e-02f,
-1.87671685e-03f,+1.69844538e-01f,-5.47149539e-01f,+1.73885301e-01f,-8.18942264e-02f,
-5.35839889e-03f,+2.78607994e-01f,-3.41975868e-01f,-4.72813360e-02f,-3.37042809e-01f,
+1.81398932e-02f,+5.35633899e-02f,-3.32606807e-02f,+8.86953920e-02f,-2.07736477e-01f,
+2.50210434e-01f,-2.92460233e-01f,+1.64197788e-01f,-1.71606243e-02f,+1.44891664e-01f,
-3.95397753e-01f,+1.03750445e-01f,-2.04482406e-01f,-1.82924420e-01f,-2.53710121e-01f,
+1.06766313e-01f,-3.64336334e-02f,-8.60666335e-02f,-1.16995491e-01f,-2.08901521e-02f,
-2.17915207e-01f,-1.17446892e-01f,+3.21633443e-02f,-8.90840590e-02f,+4.04606611e-01f,
-1.59446731e-01f,+2.52100844e-02f,-3.10921366e-03f,+9.89903659e-02f,-2.15935737e-01f,
-1.15748242e-01f,+1.64926186e-01f,+1.19532041e-01f,-1.64630622e-01f,-1.25893280e-01f,
-5.93855269e-02f,-2.38850154e-02f,+3.15653831e-01f,+1.95284948e-01f,+5.00104249e-01f,
+2.30997265e-03f,-6.10528886e-01f,-3.45663466e-02f,+3.92110720e-02f,-1.34002662e+00f,
+9.05366316e-02f,-1.15611397e-01f,+3.49357948e-02f,-4.11336392e-01f,-1.12767659e-01f,
+6.01941533e-02f,-1.07298799e-01f,+5.94283998e-01f,+4.78441954e-01f,+6.41635954e-02f,
-6.50795341e-01f,+2.27359444e-01f,+5.72243780e-02f,-1.83260456e-01f,-1.31020889e-01f,
-9.13701802e-02f,+2.97267765e-01f,-5.54624975e-01f,+1.90809280e-01f,+3.77566442e-02f,
+2.59263185e-03f,-2.57705986e-01f,+6.54612407e-02f,-9.78436619e-02f,-2.49912590e-01f,
-6.82759508e-02f,-3.75050842e-03f,-1.14327736e-01f,+2.52648562e-01f,-6.00683168e-02f,
+5.62986024e-02f,-3.91098410e-01f,-3.78615186e-02f,+8.93437043e-02f,-4.97724228e-02f,
+2.51923591e-01f,-5.37742823e-02f,+2.31248930e-01f,-8.06962177e-02f,+3.91079426e-01f,
-1.58574387e-01f,+1.99776798e-01f,+6.35714270e-03f,-3.12811881e-01f,-7.24828914e-02f,
-8.59016627e-02f,+2.47041225e-01f,-8.00652131e-02f,+3.41335416e-01f,+4.46056366e-01f,
+1.49964646e-01f,+4.30336557e-02f,+5.45289181e-02f,-3.31870437e-01f,-1.78165779e-01f,
-5.39623380e-01f,+2.30007201e-01f,-5.92756830e-03f,+1.96880043e-01f,-3.00160199e-01f,
-1.28722504e-01f,+2.54543126e-02f,+1.95181719e-03f,+1.13921739e-01f,+1.04649149e-01f,
-1.24395207e-01f,-1.87038526e-01f,+2.00207382e-01f,+2.13394329e-01f,-1.92169070e-01f,
-3.29208344e-01f,-7.28862643e-01f,+7.17809284e-03f,+2.46848792e-01f,+1.81923658e-01f,
+2.00532481e-01f,+1.50029197e-01f,-3.84908348e-01f,+2.54488558e-01f,+9.31478739e-02f,
-1.20101772e-01f,+5.09757698e-01f,-2.86097117e-02f,+3.55647355e-02f,-2.80916244e-01f,
-9.61178616e-02f,+8.57841894e-02f,+2.73686767e-01f,+9.24934000e-02f,-1.65968522e-01f,
+5.21621034e-02f,+6.74162526e-04f,-2.79825687e-01f,-4.17899992e-03f,+1.99100837e-01f,
+1.15988851e-01f,+1.05308153e-01f,+9.57196355e-02f,+7.96076655e-02f,+1.00611992e-01f,
-1.44662708e-01f,-1.03752576e-01f,-3.24392408e-01f,-1.01976776e+00f,-3.32200468e-01f,
-1.13391447e+00f,+2.48802513e-01f,-4.08117235e-01f,-6.20344579e-01f,+2.38963366e-01f,
-1.09630845e-01f,-1.50518501e-02f,-4.45172600e-02f,-5.16748652e-02f,-9.54108760e-02f,
-3.58473599e-01f,+7.04158321e-02f,-1.01069503e-01f,-5.82575649e-02f,+3.26746970e-01f,
-1.33954838e-01f,+6.93389699e-02f,+6.06122792e-01f,+1.04852460e-01f,-5.74112535e-01f,
-6.04607761e-02f,+3.82027239e-01f,-5.31239919e-02f,-1.92640275e-01f,-1.44422188e-01f,
+3.64133231e-02f,-9.62745175e-02f,-1.56664774e-01f,-3.54804955e-02f,-9.18704644e-02f,
+3.80394235e-02f,-3.49274993e-01f,-6.29457161e-02f,-2.76781619e-04f,-3.67717028e-01f,
-3.71788114e-01f,-8.47970396e-02f,+7.96965361e-02f,+2.32607946e-02f,-2.08801761e-01f,
+3.38596702e-02f,-5.29920161e-02f,+2.91007549e-01f,-1.84581369e-01f,-1.15214154e-01f,
+3.27946320e-02f,-8.83988217e-02f,+1.05302356e-01f,-3.15980941e-01f,-6.53055981e-02f,
+2.22470164e-02f,-1.51405305e-01f,-4.80734296e-02f,-1.49202496e-01f,-8.02560598e-02f,
+4.27105278e-01f,-3.83904763e-02f,-7.67902955e-02f,-1.46763772e-01f,-1.16180092e-01f,
-1.03479117e-01f,-9.63017121e-02f,+1.27566475e-02f,+3.47584307e-01f,-2.26382073e-02f,
+1.72914252e-01f,-7.22592548e-02f,+3.16428870e-01f,-8.22605863e-02f,+7.14623258e-02f,
-1.90206319e-02f,+3.06964759e-02f,+5.84956072e-02f,-7.75441853e-03f,+2.42386628e-02f,
+7.50320926e-02f,+3.90498966e-01f,-5.80064952e-02f,-1.26926163e-02f,+1.40204560e-02f,
-2.08947867e-01f,+1.58940956e-01f,-8.07272866e-02f,-5.66809416e-01f,-3.10538411e-01f,
-4.82981605e-03f,-2.39391485e-03f,-2.68073261e-01f,-4.57290232e-01f,-1.05289273e-01f,
-3.86997253e-01f,+6.09772861e-01f,+7.66682476e-02f,-1.60621539e-01f,+4.52610850e-01f,
-7.09404051e-01f,-1.59864873e-02f,+3.98577601e-02f,+3.75627309e-01f,+8.79470259e-02f,
-5.73361143e-02f,-1.93198502e-01f,+1.97524726e-01f,-7.45079964e-02f,+3.62408042e-01f,
-9.19951499e-02f,+1.00676216e-01f,-1.10718882e+00f,-9.76555422e-02f,-7.84360394e-02f,
-1.40378356e-03f,-2.40266368e-01f,-6.74906075e-01f,+1.33903593e-01f,-2.50337839e-01f,
-2.28015464e-02f,-2.33755335e-01f,-5.10571338e-02f,+6.61598071e-02f,+1.86912075e-01f,
+2.09546611e-02f,+1.53805494e-01f,-3.54829073e-01f,-1.32563338e-01f,+3.13260742e-02f,
-7.21974745e-02f,+3.19518805e-01f,+6.14198521e-02f,+2.70073861e-01f,+1.17476404e-01f,
-2.04582931e-03f,-6.56945765e-01f,-9.03544426e-02f,+1.37438238e-01f,-1.03013208e-02f,
-3.02031666e-01f,+1.15383230e-01f,+1.37482792e-01f,-6.79999590e-02f,-3.06183752e-02f,
-2.64353216e-01f,-1.75897434e-01f,+3.57865691e-01f,+6.03832603e-01f,-1.69776678e-02f,
+1.39560960e-02f,+2.38770142e-01f,+3.26139219e-02f,-9.73554328e-02f,+3.97397935e-01f,
+3.57100248e-01f,-7.01525286e-02f,+3.31520825e-03f,+5.47995754e-02f,+1.44889966e-01f,
+1.40502229e-02f,-1.15828030e-01f,-6.15588069e-01f,+2.70997081e-02f,+2.01862499e-01f,
-9.33222659e-03f,+1.30943567e-01f,+1.17831208e-01f,+2.32125804e-01f,+2.11328611e-01f,
-9.19088662e-01f,-3.01428020e-01f,-1.82349592e-01f,+3.66968125e-01f,+1.87251493e-01f,
-1.53677344e-01f,+1.72419861e-01f,-3.61025244e-01f,-6.19894313e-03f,+1.15792468e-01f,
+5.59382774e-02f,+8.92741140e-03f,+2.01066494e-01f,-3.32137197e-01f,+2.31593654e-01f,
-1.93245709e-02f,+1.08713880e-01f,+2.06386745e-01f,-2.82769561e-01f,-1.14333481e-01f,
-2.02061400e-01f,+1.16474733e-01f,-1.94887407e-02f,-3.48503977e-01f,-2.03612700e-01f,
+1.85008913e-01f,+1.08516380e-01f,+1.36714801e-01f,-1.66594505e-01f,-1.57948229e-02f,
+1.29066780e-01f,-2.99288958e-01f,-1.57392308e-01f,-4.29370254e-02f,+2.29916692e-01f,
-2.89080858e-01f,-2.72208583e-02f,+2.02424973e-01f,+8.03132877e-02f,+7.04300357e-03f,
+2.96634808e-02f,-1.24749506e-03f,+3.28154683e-01f,-1.15169995e-01f,+5.14452159e-02f,
+7.70035505e-01f,-1.64961517e-01f,+1.85565680e-01f,-2.41354525e-01f,-1.74604386e-01f,
-5.91013193e-01f,+3.90468389e-02f,-5.26344702e-02f,-2.24482585e-02f,+1.35064930e-01f,
+1.09603509e-01f,-2.92929530e-01f,-3.15436046e-03f,+2.36033365e-01f,-8.47979635e-02f,
+1.29871875e-01f,-3.01029623e-01f,-1.92220569e-01f,-2.21679527e-02f,-4.19010781e-02f,
-1.01567253e-01f,+4.19505946e-02f,-2.11591888e-02f,-1.29647896e-01f,-1.65376946e-01f,
+2.64766753e-01f,-1.06823303e-01f,+5.45305386e-02f,-2.71710038e-01f,+4.19116437e-01f,
-1.79553971e-01f,-1.17558740e-01f,+6.09569214e-02f,-7.32459351e-02f,+2.17686549e-01f,
-4.26462740e-02f,+8.32595751e-02f,-2.00463682e-01f,-2.07997069e-01f,+2.93172419e-01f,
+3.50291170e-02f,+3.30854297e-01f,+6.70688570e-01f,+2.77387977e-01f,-8.83020461e-01f,
+4.90645289e-01f,-2.72221118e-01f,-1.70138702e-02f,-1.29810065e-01f,+7.81698003e-02f,
+6.26434991e-03f,-8.33450735e-01f,-2.10196450e-01f,+1.54330149e-01f,+6.95673451e-02f,
-1.02558859e-01f,+3.95801157e-01f,-4.42839295e-01f,+2.45141879e-01f,-3.02630574e-01f,
+5.61349355e-02f,-5.82779408e-01f,-1.84806883e-02f,-6.79664314e-01f,-1.74497128e-01f,
+5.47316551e-01f,-2.07233448e-02f,+4.67562973e-01f,+2.70380855e-01f,+3.86371389e-02f,
-2.57268220e-01f,+3.74374032e-01f,-2.58126706e-01f,-3.11714798e-01f,-3.88203934e-03f,
-1.16477691e-01f,-6.23575270e-01f,+4.85899076e-02f,+6.13721758e-02f,-6.02692783e-01f,
-3.59714091e-01f,-8.86822566e-02f,+2.30941437e-02f,-1.08031444e-01f,+8.05497319e-02f,
+1.06965803e-01f,-9.57707167e-02f,-1.89330995e-01f,+2.09880531e-01f,-1.34564802e-01f,
-1.04336524e-02f,+2.32643947e-01f,+3.30438554e-01f,-3.34113359e-01f,-6.79037809e-01f,
+4.35101539e-01f,-6.48842037e-01f,+1.87422946e-01f,-8.51164982e-02f,+2.51176089e-01f,
+5.05849421e-02f,-5.25483072e-01f,-1.27704501e-01f,-5.77979274e-02f,-3.62629890e-01f,
+2.96986431e-01f,-2.52620392e-02f,-3.45547110e-01f,-2.88470596e-01f,-1.04645647e-01f,
-1.10369399e-01f,+5.39496839e-02f,+1.01535637e-02f,+1.91794023e-01f,+1.25497347e-03f,
+1.94344416e-01f,-3.24135758e-02f,-1.64947435e-01f,+2.87539721e-01f,+9.30112302e-02f,
+1.73439875e-01f,-4.64651100e-02f,-6.98159561e-02f,-1.06953401e-02f,-2.12551132e-01f,
+1.39879599e-01f,-3.39785039e-01f,-3.44579190e-01f,+2.81252056e-01f,+5.78024685e-02f,
+1.90819606e-01f,-3.16944998e-03f,+4.28620994e-01f,-3.30848359e-02f,-1.22546695e-01f,
+3.76405299e-01f,+3.14586490e-01f,-2.68852320e-02f,+2.08238792e-02f,+3.53256129e-02f,
+1.10165887e-01f,+1.64320692e-01f,-1.82047370e-03f,+5.01922250e-01f,-5.18799089e-02f,
+2.16701418e-01f,+2.95470636e-02f,+9.31274798e-03f,-1.27703592e-01f,-5.39415181e-02f,
+3.32947761e-01f,-5.20143628e-01f,+1.04438335e-01f,-1.70929879e-01f,+4.30285156e-01f,
-7.79734313e-01f,-2.33943120e-01f,+4.42173302e-01f,+2.49080390e-01f,-7.21361861e-02f,
+6.89804778e-02f,-8.85799825e-02f,-1.17513277e-01f,-8.73582214e-02f,+3.44708055e-01f,
-1.19986229e-01f,-1.17478170e-01f,-2.48546968e-03f,-4.26030338e-01f,-1.29045814e-01f,
+2.94457704e-01f,+2.96432763e-01f,-3.07663143e-01f,-2.31337547e-01f,-1.82695627e-01f,
-3.25786293e-01f,-1.72144264e-01f,-3.38908136e-01f,+7.10526556e-02f,-1.54912984e-02f,
+5.08240759e-01f,-4.51768547e-01f,-3.53799947e-02f,-2.42451424e-04f,-5.99745698e-02f,
+7.53650218e-02f,-4.51612145e-01f,-1.25774756e-01f,-1.70062020e-01f,-2.96425428e-02f,
+6.84254915e-02f,+6.39903769e-02f,+2.10850179e-01f,-3.60732853e-01f,-1.69273600e-01f,
-4.59046476e-02f,-6.25618160e-01f,+7.58603215e-02f,-8.64914581e-02f,-1.57457530e-01f,
+2.48017758e-01f,+4.54516336e-02f,-7.56000653e-02f,-1.04764380e-01f,+2.66597182e-01f,
-3.34212370e-02f,-7.08599463e-02f,+2.68239975e-01f,-4.98535521e-02f,-3.59896660e-01f,
-1.39578730e-01f,+5.06753139e-02f,+1.61737636e-01f,-7.90070966e-02f,-2.91237414e-01f,
+7.51880780e-02f,-5.79847455e-01f,-1.43151283e-01f,-3.07916291e-02f,+3.94615859e-01f,
-2.47036234e-01f,+3.52974385e-02f,+8.23961198e-02f,-5.38976863e-03f,-3.29408139e-01f,
+1.69687763e-01f,+1.75123274e-01f,-1.29384279e-01f,+1.37300953e-01f,+5.16013741e-01f,
+3.02630067e-01f,+2.66881168e-01f,-2.09658742e-02f,+8.57003704e-02f,+1.48049621e-02f,
-1.82294786e-01f,-2.77988017e-02f,-9.94185582e-02f,-6.70709088e-02f,-6.26344159e-02f,
+1.37986513e-02f,-3.73217046e-01f,-2.82945663e-01f,-7.02304989e-02f,-1.02899536e-01f,
+4.84336734e-01f,-6.85920343e-02f,-1.12113647e-01f,-1.06207982e-01f,-1.66491926e-01f,
+6.51119947e-02f,-1.25721306e-01f,-1.19405106e-01f,+1.71940431e-01f,-3.16703133e-02f,
+2.05446452e-01f,+1.85271621e-01f,-5.31373203e-01f,+2.27922201e-01f,+8.25364590e-02f,
-5.26925772e-02f,-2.40086496e-01f,+2.52897769e-01f,+1.13591179e-01f,-4.56461519e-01f,
-4.91558574e-02f,+3.23892862e-01f,-3.73442248e-02f,+5.97712137e-02f,+2.79793411e-01f,
+8.31491798e-02f,+3.56715471e-02f,+1.97194815e-01f,+2.35666543e-01f,+9.17969421e-02f,
+4.33933854e-01f,-3.77649665e-02f,+1.35239780e-01f,-1.50127653e-02f,+3.60191651e-02f,
-2.01688409e-01f,-3.21353942e-01f,-4.40158576e-01f,+6.46055564e-02f,-9.16662514e-02f,
+2.47139558e-02f,+3.98687012e-02f,-3.68009135e-02f,+9.94172785e-03f,+4.39080894e-01f,
+2.11515144e-01f,-7.34878182e-01f,+3.95221189e-02f,-3.31825078e-01f,-7.40230083e-02f,
+1.91822186e-01f,-1.49470285e-01f,-2.02672735e-01f,-3.81046116e-01f,-4.35200296e-02f,
+1.06023602e-01f,+6.29770085e-02f,-1.66194476e-02f,-6.81481510e-02f,+7.35703763e-03f,
+2.12061390e-01f,-4.86779623e-02f,+5.30021787e-02f,-6.36413246e-02f,-4.10035700e-01f,
+2.31976882e-01f,-6.02061935e-02f,+9.80950668e-02f,+3.33246067e-02f,-1.03245145e-02f,
+1.45966917e-01f,+8.56281146e-02f,+2.61588693e-01f,-5.91509044e-02f,+1.05744794e-01f,
-4.82680947e-01f,+1.81369081e-01f,-2.55653590e-01f,+3.26408237e-01f,-2.02079024e-02f,
-3.15408289e-01f,+6.34685755e-02f,-1.16892539e-01f,-3.26111853e-01f,-8.16218376e-01f,
-2.29457393e-02f,+1.83195427e-01f,-2.62260646e-01f,+2.06923872e-01f,+1.34904031e-02f,
+3.58632505e-02f,-4.32756186e-01f,-1.62968129e-01f,-9.92000848e-02f,-2.18681142e-01f,
+3.82687360e-01f,-1.16517693e-01f,-2.75218248e-01f,+1.98458150e-01f,+2.83772141e-01f,
+2.33543798e-01f,-7.22816169e-01f,-7.33378455e-02f,-3.43389064e-01f,+1.89274568e-02f,
+2.45139271e-01f,-7.53810629e-02f,-2.78898984e-01f,+3.98256063e-01f,+2.71220446e-01f,
+5.92742153e-02f,+2.06227466e-01f,-4.98398870e-01f,+7.30364844e-02f,+1.00089304e-01f,
+8.75682682e-02f,+1.76094607e-01f,+7.04668090e-02f,+8.75602141e-02f,-2.86259383e-01f,
-5.51173203e-02f,-1.13384418e-01f,+3.69103879e-01f,-4.62221466e-02f,-1.36653215e-01f,
-2.36560762e-01f,-2.77372301e-01f,+1.56589806e-01f,-4.56037037e-02f,-7.66267851e-02f,
-1.41580582e-01f,+1.58724636e-02f,+1.28733367e-01f,-2.12973487e-02f,-2.17230320e-01f,
-8.26912522e-02f,+2.33694538e-01f,+1.93869457e-01f,-1.06530957e-01f,-5.44366777e-01f,
-7.42418272e-03f,-1.34877980e-01f,-2.40688831e-01f,+3.35964859e-01f,+2.97333896e-01f,
-2.60830782e-02f,-3.49976383e-02f,-2.38232702e-01f,-1.84802830e-01f,-3.15408438e-01f,
-7.00075701e-02f,-6.26396179e-01f,-2.44363248e-01f,+3.34770709e-01f,-6.32154167e-01f,
-3.38089764e-01f,-2.00668186e-01f,+1.19898111e-01f,-1.07413776e-01f,+9.97252166e-02f,
-5.11025608e-01f,+4.35229719e-01f,-2.46036738e-01f,+2.27188110e-01f,+1.40995696e-01f,
-4.33516920e-01f,+2.19013467e-02f,+2.11278513e-01f,+2.69067049e-01f,+1.77670065e-02f,
+2.41523787e-01f,+1.26919031e-01f,-4.40775901e-02f,-1.05729900e-01f,-1.25696257e-01f,
+2.57608294e-01f,-3.32926095e-01f,-3.24805796e-01f,-2.80728281e-01f,+7.69833243e-03f,
+1.82919025e-01f,+1.10896617e-01f,-1.13839515e-01f,-3.15529525e-01f,+2.45549262e-01f,
+4.74181801e-01f,-1.06008008e-01f,+2.00170740e-01f,+8.96075740e-02f,-2.83467054e-01f,
-8.51438120e-02f,+6.17021695e-02f,-3.37750673e-01f,+7.95819163e-02f,-3.28895217e-03f,
+2.10802093e-01f,-1.47396654e-01f,-9.40073878e-02f,-1.85693949e-02f,-2.07257912e-01f,
+2.22849727e-01f,+3.36365215e-03f,-8.03886354e-02f,+1.60724744e-01f,-8.10547173e-02f,
-1.33119032e-01f,+1.02616742e-01f,+4.15857509e-02f,-2.40546152e-01f,-3.63197178e-01f,
+2.08321005e-01f,+1.00505464e-01f,-1.11160195e-02f,-1.81021124e-01f,+2.59216763e-02f,
-2.62519587e-02f,+2.01527163e-01f,+1.28123015e-01f,-1.98949024e-01f,-8.67847577e-02f,
+3.04556131e-01f,-1.26036510e-01f,+1.46850888e-02f,+5.54398656e-01f,+3.21631759e-01f,
-1.26801163e-01f,-1.56397149e-01f,+2.16567799e-01f,-1.47362381e-01f,-5.87753244e-02f,
-9.39526558e-02f,-9.79146957e-02f,+1.72507569e-01f,+4.25032631e-04f,+2.96043873e-01f,
-2.64215857e-01f,+4.36066762e-02f,-1.25858754e-01f,-1.86299190e-01f,-2.55002201e-01f,
-3.58437449e-01f,+7.27999747e-01f,+1.26746818e-01f,+8.49753469e-02f,+1.36954278e-01f,
-6.03005849e-02f,-2.21820436e-02f,-1.46392033e-01f,-6.69377297e-02f,+4.84571382e-02f,
-7.17331544e-02f,-9.17861164e-02f,-3.02716136e-01f,-1.04206778e-01f,+1.36438355e-01f,
-3.73147547e-01f,-1.48020044e-01f,-1.14459746e-01f,-7.42738619e-02f,-1.96451485e-01f,
-3.65089804e-01f,+1.18770771e-01f,+2.15781599e-01f,+1.17013857e-01f,+5.95304705e-02f,
+1.04110599e-01f,-2.12589920e-01f,-6.64920956e-02f,-9.76175815e-02f,+4.67273034e-02f,
+1.85581625e-01f,-5.90542912e-01f,+1.95848316e-01f,+3.88589889e-01f,-5.40036678e-01f,
-7.10466132e-02f,+2.85089344e-01f,-1.37662381e-01f,+4.28627245e-02f,+1.18772149e-01f,
+2.22259730e-01f,-7.56122023e-02f,+5.08599961e-03f,+1.80132791e-01f,-2.23395322e-02f,
+8.18633195e-03f,+5.68024591e-02f,+4.00805354e-01f,+1.31872267e-01f,-3.65693569e-02f,
+3.65450889e-01f,-3.29733551e-01f,+2.10195377e-01f,+8.12377036e-02f,-2.25923017e-01f,
-5.84032774e-01f,-4.42775846e-01f,+2.62613386e-01f,+1.78751707e-01f,+2.64678270e-01f,
+2.31281564e-01f,-1.62824303e-01f,+4.39936906e-01f,+6.74023703e-02f,-4.28171873e-01f,
-4.33438361e-01f,-4.68741469e-02f,-2.67806560e-01f,-2.12919563e-02f,-8.50914568e-02f,
+1.45769760e-01f,-1.02149412e-01f,-7.36194029e-02f,+2.94570420e-02f,+4.10006344e-02f,
-1.85238481e-01f,-2.15552375e-01f,+3.12369782e-02f,-7.31228232e-01f,+3.04702699e-01f,
+9.67372358e-02f,-6.25211149e-02f,+2.55147010e-01f,+2.51870900e-01f,+1.49442926e-01f,
-5.84319234e-01f,-2.95185208e-01f,+4.45930809e-02f,+2.31903568e-01f,-2.95354873e-01f,
-2.74127007e-01f,+1.56736612e-01f,-3.45973372e-01f,+3.44548017e-01f,-8.90524834e-02f,
+1.00769401e-01f,+1.02474302e-01f,-1.70882605e-02f,+2.09457725e-02f,+1.77797005e-01f,
+2.69747376e-01f,-5.32932691e-02f,-4.38211933e-02f,+1.90555349e-01f,-2.07060426e-01f,
-1.83746487e-01f,-4.20356430e-02f,-8.09333473e-02f,-4.22113001e-01f,+4.29540090e-02f,
+2.29461938e-01f,-2.13025451e-01f,+4.34917994e-02f,+1.53750271e-01f,+1.27281368e-01f,
-5.32191433e-02f,-1.79274604e-01f,+8.48166347e-02f,+2.62394398e-01f,+1.17868736e-01f,
+2.45817184e-01f,-3.70136589e-01f,-4.31657676e-03f,+4.93442893e-01f,+9.02176201e-02f,
-7.45921209e-02f,+1.32506445e-01f,-2.80767858e-01f,+2.43755952e-01f,+9.02143046e-02f,
-9.53929946e-02f,+2.52484530e-03f,-1.99561104e-01f,-1.90065160e-01f,-2.13965952e-01f,
-3.82057503e-02f,+1.80046305e-01f,-3.67596596e-01f,+3.75859486e-03f,+1.60606489e-01f,
-6.19790377e-03f,-1.79874271e-01f,-1.12795204e-01f,-3.14369768e-01f,+4.22741234e-01f,
+1.13325957e-02f,+8.03324133e-02f,-2.20153630e-02f,-1.62611574e-01f,-1.78314343e-01f,
-1.40566856e-01f,-8.67327079e-02f,+5.36711812e-01f,-1.77277066e-02f,+1.46112025e-01f,
-1.34740382e-01f,-1.81156605e-01f,-1.08065218e-01f,-1.36588663e-01f,-2.18143553e-01f,
-1.46311685e-01f,+7.17443973e-02f,+4.50984649e-02f,+2.52060592e-01f,+1.05349787e-01f,
+4.00385559e-01f,-2.96155806e-03f,+1.14340700e-01f,-8.12917948e-02f,+1.24838777e-01f,
+8.54373351e-02f,-1.30276367e-01f,-4.37393308e-01f,-5.38214259e-02f,-5.83828129e-02f,
-3.10999621e-02f,+2.71962553e-01f,-4.16700453e-01f,-1.22578889e-01f,+8.17258749e-03f,
+1.04097199e+00f,+7.40238279e-02f,-3.33463438e-02f,-2.39857398e-02f,+3.77095044e-01f,
-5.62431589e-02f,+4.76848288e-03f,+1.54742032e-01f,-1.65767223e-01f,-1.57389000e-01f,
-7.79636055e-02f,+2.33767360e-01f,+2.14616075e-01f,-1.50047973e-01f,-9.74015892e-02f,
+6.65987730e-01f,-5.45056820e-01f,-1.71379879e-01f,-1.24924079e-01f,-1.77716941e-01f,
-4.57865894e-01f,-5.05762517e-01f,-2.09866300e-01f,+5.96400276e-02f,-4.32549804e-01f,
+1.48467541e-01f,+4.18716185e-02f,+8.83343294e-02f,-3.70584913e-02f,+1.94630250e-02f,
+2.10549638e-01f,-7.98583925e-02f,-6.01175129e-02f,-8.59592408e-02f,+2.40405668e-02f,
+2.35868126e-01f,+2.26742387e-01f,+2.52896637e-01f,+3.83276075e-01f,+1.83499176e-02f,
-1.08260584e+00f,-8.63432065e-02f,+2.39582300e-01f,-3.37222308e-01f,+6.70479313e-02f,
+8.82660300e-02f,+2.34686598e-01f,-7.50187924e-03f,+5.56271374e-02f,-9.28673685e-01f,
+2.83266127e-01f,-7.32389614e-02f,-5.86337447e-01f,-2.62938529e-01f,-2.70662121e-02f,
-3.58995467e-01f,-3.45506147e-02f,-1.87173318e-02f,+2.63363183e-01f,-4.70598578e-01f,
-8.02590474e-02f,-1.30969249e-02f,-2.79091578e-02f,+2.57979304e-01f,+5.57182133e-02f,
-1.73540980e-01f,-1.67913791e-02f,+1.85671091e-01f,-7.25364089e-02f,+3.23862061e-02f,
+1.65742591e-01f,+2.81440973e-01f,+9.08681452e-02f,-5.30835509e-01f,-5.15515983e-01f,
-1.42544389e-01f,+9.95493531e-02f,+3.75769645e-01f,-3.46054018e-01f,-3.58629711e-02f,
+3.32207292e-01f,+4.37413543e-01f,+1.70231704e-02f,+4.51434195e-01f,+2.41457283e-01f,
-4.10859175e-02f,+1.48076609e-01f,+1.41879413e-02f,+4.85246390e-01f,+2.12904401e-02f,
+2.63292845e-02f,+6.62202686e-02f,-3.32638532e-01f,+6.38800114e-02f,+1.31412119e-01f,
-3.26933891e-01f,-1.90719947e-01f,-6.07826561e-03f,-4.25817996e-01f,-9.46190208e-02f,
-7.91279078e-02f,+1.99563310e-01f,-1.25650793e-01f,+1.11598134e-01f,-2.79353023e-01f,
-2.52774835e-01f,+2.30387986e-01f,-1.75681617e-02f,-7.42360055e-02f,+1.60733551e-01f,
-2.76086442e-02f,+6.45974576e-02f,+2.66901284e-01f,-2.71320678e-02f,+2.22759455e-01f,
-2.68938899e-01f,-4.78905700e-02f,-3.99344750e-02f,-1.83315389e-03f,+5.03515244e-01f,
-1.21077523e-01f,+1.11356333e-01f,+3.73941451e-01f,-4.41424772e-02f,-5.43582320e-01f,
+2.40223035e-02f,-1.01899177e-01f,+9.08149034e-03f,+2.62778681e-02f,+1.12698041e-01f,
-3.95424590e-02f,-2.28696037e-02f,+1.09201744e-01f,-1.28535137e-01f,-7.39690140e-02f,
-2.57465150e-02f,-4.27521765e-01f,-1.37038827e-01f,-8.03577304e-02f,-1.55288458e-01f,
+3.41622204e-01f,-1.00550421e-01f,-5.92234954e-02f,+3.62633690e-02f,-1.05750494e-01f,
-7.87383467e-02f,-7.62481913e-02f,-2.48685032e-01f,+1.86121672e-01f,-3.32603633e-01f,
-3.02746326e-01f,+1.97834209e-01f,-1.02904364e-01f,+2.70568937e-01f,+1.62835643e-01f,
+1.02095358e-01f,-1.27769783e-01f,+1.88669600e-02f,+6.97492436e-02f,-2.92559534e-01f,
-7.08128661e-02f,+1.80321038e-01f,-1.24332085e-01f,-5.61065137e-01f,+6.87048063e-02f,
+9.90608782e-02f,-1.65962316e-02f,+1.73381880e-01f,+2.45784640e-01f,-1.49112523e-01f,
-7.83782363e-01f,+3.79278250e-02f,+1.86648324e-01f,-1.37622524e-02f,-4.68122698e-02f,
+2.38137603e-01f,-3.13072830e-01f,+3.56268167e-01f,+4.14036423e-01f,-3.12571734e-01f,
-5.74242115e-01f,+5.28200977e-02f,-2.83225119e-01f,-2.03624755e-01f,-2.12431416e-01f,
+1.87973306e-01f,+4.07793075e-01f,+5.97557146e-03f,+2.43268237e-02f,-3.22003216e-01f,
-4.06904630e-02f,+1.34444088e-01f,+2.91774929e-01f,-4.19140607e-02f,-3.74326333e-02f,
+2.12712660e-01f,-3.22623193e-01f,-9.83566046e-03f,+2.79490519e-02f,-2.41770163e-01f,
+2.27390572e-01f,+4.68894430e-02f,+9.25722718e-03f,-8.81747231e-02f,+2.82194495e-01f,
+1.35030737e-02f,-2.51789868e-01f,-5.65635897e-02f,-3.99462491e-01f,+3.21289092e-01f,
+2.10927427e-01f,+1.95353493e-01f,+3.58573556e-01f,+3.93638760e-01f,-2.64767319e-01f,
-2.78354257e-01f,-3.32514763e-01f,-6.62925765e-02f,-2.14153573e-01f,-4.26884025e-01f,
+3.21215034e-01f,+2.84672022e-01f,-6.95837662e-02f,+2.64007926e-01f,-6.43051207e-01f,
-2.01917496e-02f,+6.91098571e-02f,-5.73996939e-02f,+3.09130669e-01f,+6.27617165e-02f,
-7.29088411e-02f,-4.26697917e-03f,-1.87954858e-01f,-1.13428555e-01f,-2.91221309e-02f,
-1.93732247e-01f,-5.83396628e-02f,+1.14660539e-01f,-5.63085079e-02f,+1.96272671e-01f,
+1.00146256e-01f,-4.97326665e-02f,+3.54222693e-02f,-3.34746271e-01f,-2.17026561e-01f,
-2.60986805e-01f,+3.60829668e-04f,-1.01077922e-01f,-8.14710259e-02f,+3.12897295e-01f,
+5.99347800e-02f,-4.79068011e-02f,-3.75131778e-02f,-4.96222638e-02f,+4.96544614e-02f,
+1.60786480e-01f,-1.62145719e-01f,+6.67445660e-02f,-8.77194479e-02f,-1.16853297e-01f,
-5.79744130e-02f,-1.33040734e-03f,-1.37056652e-02f,-6.35706559e-02f,-6.16314113e-02f,
+7.20840469e-02f,+2.41037570e-02f,-1.12196364e-01f,+2.67479243e-03f,-1.23555943e-01f,
+2.83367157e-01f,+2.06733152e-01f,+9.12416261e-03f,+4.92662013e-01f,+4.35404420e-01f,
+1.61040276e-01f,-3.56275856e-01f,+4.33214068e-01f,-1.98226166e-03f,-5.57775088e-02f,
+7.44142085e-02f,-6.71524927e-02f,-1.61140233e-01f,-1.43958870e-02f,-9.53941271e-02f,
-6.72052503e-02f,+4.61598560e-02f,-2.83671230e-01f,-3.67448851e-02f,-9.65300053e-02f,
-1.28656909e-01f,-2.19195426e-01f,+2.08299786e-01f,+2.13896041e-03f,-1.42865047e-01f,
-5.49602747e-01f,-2.70506442e-01f,-3.69878769e-01f,+1.97136015e-01f,+3.68351996e-01f,
-3.41531932e-01f,-1.67629406e-01f,+8.11639726e-02f,-3.93628962e-02f,-1.30148262e-01f,
+6.63910508e-02f,-1.45588279e-01f,+9.29298326e-02f,+4.89542540e-03f,+7.18538985e-02f,
+4.01527792e-01f,-4.52674516e-02f,+3.52203518e-01f,+8.82177427e-03f,-2.33313609e-02f,
-3.18574667e-01f,-2.50376817e-02f,-1.17793061e-01f,-1.33155221e-02f,+1.53366923e-01f,
+2.25795601e-02f,+2.88824260e-01f,+3.01122487e-01f,-3.52729678e-01f,+1.31083325e-01f,
+8.25022757e-02f,-2.34903783e-01f,+1.78641036e-01f,-1.24062285e-01f,-2.24993318e-01f,
-1.79887220e-01f,+3.18731427e-01f,-2.92802118e-02f,-3.84399742e-02f,-4.97336220e-03f,
-8.21510479e-02f,+4.20052528e-01f,-3.32141109e-02f,-1.71312299e-02f,+4.30375151e-02f,
-3.24395001e-01f,+1.04072735e-01f,-8.68922658e-03f,-8.60681117e-01f,+1.13577195e-01f,
+8.25347483e-01f,+5.94553351e-02f,-1.19901431e+00f,+3.08093995e-01f,-1.97643206e-01f,
-3.98592465e-02f,+7.62087226e-01f,-3.31328571e-01f,+1.54614136e-01f,+3.27229016e-02f,
+7.36694634e-01f,-4.09624368e-01f,-8.62675235e-02f,-2.74861485e-01f,-1.73465669e-01f,
+8.84329379e-02f,+5.08563042e-01f,-5.58656864e-02f,-7.48353964e-03f,-6.85893178e-01f,
-7.60970116e-02f,+3.54913443e-01f,+3.02924365e-01f,+2.54030377e-01f,+1.87186524e-02f,
+3.91034782e-02f,-6.74863338e-01f,-9.20476317e-02f,-2.33086511e-01f,-2.10853845e-01f,
-1.14881754e-01f,+1.14974983e-01f,-3.30663592e-01f,-1.26198098e-01f,+1.19058350e-02f,
+2.36602679e-01f,-2.45702267e-02f,-2.88921297e-01f,+1.87502399e-01f,-1.40599564e-01f,
+4.60181981e-01f,-1.00785159e-01f,-1.60259247e-01f,-2.26143271e-01f,+2.77737737e-01f,
-3.61951394e-03f,-8.85791928e-02f,-5.36183178e-01f,+3.42356600e-02f,-2.93401301e-01f,
+4.94260117e-02f,-1.20772697e-01f,-3.58643346e-02f,-8.51733610e-02f,+1.27524048e-01f,
+1.02905080e-01f,+3.74554135e-02f,+3.08669329e-01f,-2.49488815e-03f,+1.25338733e-01f,
-1.49926081e-01f,-1.02351159e-01f,+9.15065780e-03f,-5.86538017e-01f,+3.65069024e-02f,
+4.34496284e-01f,-1.00158937e-01f,+7.69611746e-02f,-3.72043848e-02f,-6.11393690e-01f,
+8.24426785e-02f,+1.73660859e-01f,-3.26489121e-01f,+6.06584437e-02f,+1.82044238e-01f,
-2.18703579e-02f,-8.38304162e-02f,-2.40832493e-01f,-8.95145610e-02f,-9.22636613e-02f,
