-2.871118253096938133e-03
-4.761711135506629944e-02
9.767866134643554688e-02
-5.127479135990142822e-02
4.735200479626655579e-02
-2.606138400733470917e-02
5.221763253211975098e-02
-2.210573665797710419e-02
-1.328438334167003632e-02
3.567387163639068604e-02
-4.258029907941818237e-02
4.293252527713775635e-02
8.096263743937015533e-03
8.401665836572647095e-02
7.793045043945312500e-02
2.714241296052932739e-02
-3.126360848546028137e-02
7.520700991153717041e-02
1.029439494013786316e-01
-6.007259339094161987e-02
2.245519310235977173e-02
-3.808801993727684021e-02
-3.193276748061180115e-02
-5.705898255109786987e-02
-3.404058516025543213e-02
-5.407578870654106140e-02
-2.668639458715915680e-02
5.138428136706352234e-02
5.791249126195907593e-02
-6.040253490209579468e-02
2.708041481673717499e-02
1.254183501005172729e-01
4.486821219325065613e-02
-4.120413679629564285e-03
-3.383546322584152222e-02
-4.470494762063026428e-02
1.223610863089561462e-01
-4.128829017281532288e-02
1.924787461757659912e-02
-5.716962367296218872e-02
8.682034909725189209e-03
1.021355018019676208e-01
1.996210590004920959e-02
-4.081850498914718628e-02
4.283758997917175293e-02
-4.422032833099365234e-02
9.039334207773208618e-02
8.511272817850112915e-02
-2.692103572189807892e-02
6.329527497291564941e-02
-6.697323918342590332e-02
-2.484009414911270142e-02
1.422938704490661621e-01
3.776472806930541992e-02
1.332270950078964233e-01
4.825395345687866211e-02
-7.536466419696807861e-02
-6.894207000732421875e-02
7.089020684361457825e-03
4.983935505151748657e-02
1.012045592069625854e-01
-2.413708134554326534e-04
2.583490498363971710e-02
7.472267001867294312e-02
