3.909099996089935303e-01
-5.544622428715229034e-03
4.490558207035064697e-01
-5.519252419471740723e-01
7.896631360054016113e-01
-9.283708035945892334e-02
5.121076703071594238e-01
2.326684445142745972e-01
4.221706986427307129e-01
-1.187143474817276001e-01
-6.825835257768630981e-02
-4.881126061081886292e-02
5.457863807678222656e-01
6.208582520484924316e-01
7.470573484897613525e-02
3.951292484998703003e-02
4.567245244979858398e-01
-5.085696652531623840e-02
-4.252711776643991470e-03
5.810364708304405212e-02
3.547967374324798584e-01
-7.661394029855728149e-02
6.841982901096343994e-02
1.555045843124389648e-01
4.493336677551269531e-01
1.097413524985313416e-01
3.145872354507446289e-01
1.150922626256942749e-01
8.967963606119155884e-02
1.128999590873718262e-01
4.786095917224884033e-01
-8.502989262342453003e-02
4.711657762527465820e-01
4.454444050788879395e-01
5.192354787141084671e-03
-7.602944970130920410e-02
-4.632900953292846680e-01
6.250148415565490723e-01
-1.602746844291687012e-01
-4.882991015911102295e-01
5.944387912750244141e-01
6.999102421104907990e-03
1.716676652431488037e-01
4.038732051849365234e-01
3.637921214103698730e-01
8.323532342910766602e-01
4.302947521209716797e-01
2.249537706375122070e-01
2.684521973133087158e-01
-4.910042881965637207e-02
-2.604591846466064453e-01
1.986766308546066284e-01
5.289064720273017883e-02
2.478563189506530762e-01
2.276913970708847046e-01
3.643343150615692139e-01
-7.875525951385498047e-02
4.522863030433654785e-01
1.581361889839172363e-02
-6.316917389631271362e-02
1.479979138821363449e-03
4.399746656417846680e-01
8.456288278102874756e-02
2.153037488460540771e-01
-2.163720726966857910e-01
8.250971883535385132e-02
4.193804860115051270e-01
1.050437688827514648e-01
-2.449919134378433228e-01
2.373790740966796875e-01
2.717188298702239990e-01
1.284209638833999634e-01
2.481838874518871307e-02
-3.284122049808502197e-01
-7.832042127847671509e-02
2.375048398971557617e-01
-5.286082997918128967e-02
2.538800537586212158e-01
-8.658964186906814575e-02
5.728335380554199219e-01
2.034370303153991699e-01
-1.270763427019119263e-01
-9.087138809263706207e-03
4.087630212306976318e-01
3.056966662406921387e-01
4.662077724933624268e-01
4.736559092998504639e-01
-5.523388274013996124e-03
8.636724948883056641e-02
1.841742545366287231e-01
4.084429442882537842e-01
-1.374160647392272949e-01
3.731814026832580566e-02
3.203603923320770264e-01
-2.364175319671630859e-01
3.831602931022644043e-01
2.658203542232513428e-01
3.568669855594635010e-01
-7.147473096847534180e-02
-1.047377660870552063e-01
1.244272589683532715e-01
3.098826669156551361e-02
1.612235009670257568e-01
1.155530586838722229e-01
3.290517032146453857e-01
3.819596767425537109e-01
2.254918515682220459e-01
1.520236879587173462e-01
2.023448981344699860e-02
-3.145040869712829590e-01
5.861076712608337402e-01
-7.369500119239091873e-03
4.307615160942077637e-01
-1.958663165569305420e-01
-1.527594178915023804e-01
2.036762982606887817e-01
7.004325836896896362e-02
-2.339957803487777710e-01
2.699884474277496338e-01
3.977183699607849121e-01
6.343197226524353027e-01
-2.845881879329681396e-01
4.181905686855316162e-01
-1.618263274431228638e-01
-2.374520152807235718e-02
-2.209562510251998901e-01
2.862156182527542114e-02
3.017981350421905518e-01
-5.168643593788146973e-01
9.304633736610412598e-02
2.128923833370208740e-01
2.120670974254608154e-01
2.385415285825729370e-01
2.770639955997467041e-01
-3.547919392585754395e-01
2.397025227546691895e-01
6.511569023132324219e-01
-1.563411019742488861e-02
-9.264549612998962402e-02
-1.575746238231658936e-01
3.330247104167938232e-01
1.363625228404998779e-01
-2.473696172237396240e-01
2.968393266201019287e-01
-3.123964369297027588e-02
-3.117179684340953827e-02
4.283215850591659546e-02
5.381515994668006897e-02
4.815060198307037354e-01
-1.483565270900726318e-01
6.756882071495056152e-01
5.778790917247533798e-03
-1.595366746187210083e-02
6.707621812820434570e-01
1.894292607903480530e-02
4.457836747169494629e-01
4.138885810971260071e-02
2.433108165860176086e-02
1.975664170458912849e-03
3.216311335563659668e-01
-1.021956503391265869e-01
4.156741201877593994e-01
-1.035041138529777527e-01
7.290851473808288574e-01
8.772410452365875244e-02
1.056065782904624939e-01
-4.520250856876373291e-01
2.780169844627380371e-01
2.435050159692764282e-01
-3.041512146592140198e-02
4.482852220535278320e-01
-1.130554005503654480e-01
-1.942264288663864136e-02
-2.821111679077148438e-02
2.523998618125915527e-01
2.859841883182525635e-01
1.346487253904342651e-01
-2.509925663471221924e-01
2.272628694772720337e-01
6.991946697235107422e-01
3.945726752281188965e-01
4.207013249397277832e-01
-2.812139093875885010e-01
5.409064888954162598e-01
-4.055530428886413574e-01
2.546116113662719727e-01
3.393100341781973839e-03
1.944207102060317993e-01
8.570329844951629639e-02
3.132771253585815430e-01
4.013509154319763184e-01
-1.856593415141105652e-02
4.773091077804565430e-01
3.802403807640075684e-01
3.054553866386413574e-01
-2.084938436746597290e-01
6.918368488550186157e-02
6.701835393905639648e-01
1.926916986703872681e-01
-1.177087575197219849e-01
2.853258252143859863e-01
1.761244386434555054e-01
3.451913297176361084e-01
-8.176159113645553589e-02
-3.497592806816101074e-01
7.228667736053466797e-01
1.842659115791320801e-01
3.855717182159423828e-02
8.103577792644500732e-02
-2.695483863353729248e-01
-2.911821305751800537e-01
-3.262191712856292725e-01
2.563692629337310791e-01
1.218553818762302399e-02
-4.238949716091156006e-02
-8.692251518368721008e-03
3.131797015666961670e-01
7.384143769741058350e-02
-2.892141602933406830e-02
4.061216115951538086e-01
9.076652675867080688e-02
3.812260925769805908e-01
-3.905922640115022659e-03
3.245556354522705078e-01
-1.305163651704788208e-01
1.180483773350715637e-01
3.829572498798370361e-01
2.870526313781738281e-01
3.005413524806499481e-02
-8.533287048339843750e-02
-3.106221556663513184e-01
-2.639110386371612549e-02
1.205595731735229492e-01
2.783005237579345703e-01
7.806026935577392578e-02
4.187801480293273926e-01
5.663117766380310059e-01
3.693348169326782227e-02
1.005730479955673218e-01
-3.149716928601264954e-02
2.327309399843215942e-01
-5.308437347412109375e-02
-1.962692104279994965e-02
-3.965946137905120850e-01
-2.239874452352523804e-01
8.490411192178726196e-02
-5.541384965181350708e-02
2.519453763961791992e-01
-1.650880277156829834e-02
2.988191545009613037e-01
-5.333685129880905151e-02
6.619884967803955078e-01
3.544032275676727295e-01
3.359558880329132080e-01
2.806891873478889465e-02
1.447177231311798096e-01
