-1.242900490760803223e-01
-4.742403030395507812e-01
-1.165258437395095825e-01
-5.393686294555664062e-01
-9.734655171632766724e-02
3.244642019271850586e-01
-5.959580838680267334e-02
-8.656267076730728149e-03
-2.784507572650909424e-01
2.449075728654861450e-01
-1.363241523504257202e-01
-2.682611644268035889e-01
-2.824325561523437500e-01
-3.418632745742797852e-01
1.478009074926376343e-01
-2.583180963993072510e-01
-5.357040166854858398e-01
-1.866722665727138519e-02
9.154219180345535278e-03
-2.146991640329360962e-01
-1.203038170933723450e-01
-5.107097029685974121e-01
-3.356319963932037354e-01
-3.985202014446258545e-01
6.858429312705993652e-02
-5.275258421897888184e-02
-1.654096841812133789e-01
-4.758213646709918976e-03
-3.719399869441986084e-01
-4.495556652545928955e-02
-2.440816909074783325e-01
2.729023993015289307e-01
-1.886329948902130127e-01
-1.076567843556404114e-01
-2.099112719297409058e-01
-2.479114979505538940e-01
-1.093768626451492310e-01
4.458275735378265381e-01
-1.598805785179138184e-01
1.194795295596122742e-01
-3.548560440540313721e-01
-1.987522691488265991e-01
3.706797957420349121e-02
-3.097665607929229736e-01
-4.567194730043411255e-02
-1.310677230358123779e-01
-2.106981426477432251e-01
7.140603661537170410e-02
-1.977716088294982910e-01
-3.844994902610778809e-01
-1.606644988059997559e-01
-3.193771243095397949e-01
2.288873046636581421e-01
4.822443798184394836e-02
-3.567474186420440674e-01
-1.611994504928588867e-01
-2.989360094070434570e-01
-3.116837441921234131e-01
-9.898564964532852173e-02
-2.924948744475841522e-02
-2.635465264320373535e-01
-2.254434078931808472e-01
1.234559863805770874e-01
-1.522016078233718872e-01
