-2.661244869232177734e-01
1.451514661312103271e-01
-2.435899712145328522e-02
-2.551736831665039062e-01
-3.054916262626647949e-01
-4.026582241058349609e-01
-8.928187191486358643e-02
-2.493623346090316772e-01
-3.421787545084953308e-02
1.056592985987663269e-01
-1.701447814702987671e-01
-3.495544195175170898e-01
1.662459522485733032e-01
-1.617412269115447998e-01
-7.484328467398881912e-03
-9.382391721010208130e-02
-1.302853524684906006e-01
-1.229371801018714905e-01
1.849196553230285645e-01
-4.287625476717948914e-02
2.005098909139633179e-01
-4.718144237995147705e-01
-2.511895895004272461e-01
-3.927809745073318481e-02
-5.900050327181816101e-02
-3.212583959102630615e-01
-1.873851418495178223e-01
-2.106197029352188110e-01
8.290641009807586670e-02
8.171607553958892822e-02
1.611648201942443848e-01
-3.435605764389038086e-01
-2.753954753279685974e-02
-1.817744374275207520e-01
-1.363634914159774780e-01
-2.759421467781066895e-01
-2.420332580804824829e-01
3.861714899539947510e-02
1.738703995943069458e-01
-3.978687897324562073e-02
-7.519733905792236328e-02
-1.143900603055953979e-01
2.224193885922431946e-02
1.289739273488521576e-02
-1.153490617871284485e-01
-9.137248992919921875e-02
-2.905113697052001953e-01
-1.578154265880584717e-01
6.335276365280151367e-02
-1.715973764657974243e-01
-1.421211510896682739e-01
1.859950087964534760e-02
9.247274696826934814e-02
-1.010204926133155823e-01
-4.808517917990684509e-02
-3.368090689182281494e-01
-1.465763151645660400e-01
2.170382253825664520e-02
2.733731269836425781e-01
6.401092559099197388e-02
-5.800599977374076843e-02
-1.964313834905624390e-01
-1.732478588819503784e-01
-2.841694653034210205e-01
-6.732108443975448608e-02
1.910923421382904053e-01
-3.541016280651092529e-01
-2.175192534923553467e-01
-3.461489379405975342e-01
-6.149861030280590057e-03
-1.333774253726005554e-02
1.324167251586914062e-01
-7.831120491027832031e-02
-6.067665759474039078e-03
4.475464671850204468e-02
-1.957612633705139160e-01
-4.144639372825622559e-01
-1.389828026294708252e-01
-2.410593777894973755e-01
-2.429948896169662476e-01
-1.147073972970247269e-02
-2.555282115936279297e-01
-1.723698228597640991e-01
-1.978956460952758789e-01
-7.924467325210571289e-02
-3.577483892440795898e-01
-1.297841966152191162e-01
-1.559184789657592773e-01
1.439163833856582642e-02
-1.273765321820974350e-02
-1.784555464982986450e-01
-9.729685634374618530e-02
-1.593124866485595703e-01
7.648335304111242294e-03
-3.947893381118774414e-01
9.869732707738876343e-02
-2.554218471050262451e-01
2.295021265745162964e-01
-2.085459232330322266e-01
3.690114244818687439e-02
1.541133131831884384e-02
-3.042988106608390808e-02
1.251221895217895508e-01
2.629425823688507080e-01
8.562863618135452271e-02
-2.170010507106781006e-01
1.189042907208204269e-02
4.271114245057106018e-02
1.278812885284423828e-01
1.105166673660278320e-01
-8.479335904121398926e-02
6.500379741191864014e-02
-8.991792052984237671e-02
-8.711165934801101685e-02
-4.491402208805084229e-02
-3.102369010448455811e-01
-5.144399031996726990e-02
1.468178629875183105e-02
-2.571928501129150391e-01
-7.807093858718872070e-02
-3.661747872829437256e-01
-1.806279718875885010e-01
-1.542447358369827271e-01
-3.614784181118011475e-01
-3.386947810649871826e-01
-1.700468212366104126e-01
-1.863772422075271606e-01
-4.639442637562751770e-02
