2.343949228525161743e-01
1.908669061958789825e-02
2.092813551425933838e-01
5.196680128574371338e-02
2.791132032871246338e-02
-7.157428655773401260e-03
1.694270223379135132e-01
2.686940729618072510e-01
2.850058078765869141e-01
-1.469168215990066528e-01
-2.246432006359100342e-01
-8.728831261396408081e-02
4.236942902207374573e-02
-1.112253740429878235e-01
1.691001951694488525e-01
-3.554937429726123810e-03
1.452462226152420044e-01
1.182737499475479126e-01
-2.306137233972549438e-01
1.018025502562522888e-01
2.074469625949859619e-01
-1.586482487618923187e-02
1.838349997997283936e-01
-2.218771167099475861e-02
-6.873927265405654907e-02
3.097520470619201660e-01
6.367843598127365112e-02
4.885122179985046387e-01
-8.255019783973693848e-02
8.179359883069992065e-02
1.423611585050821304e-02
2.009525001049041748e-01
2.580584883689880371e-01
-1.505708247423171997e-01
4.705619812011718750e-01
5.811947956681251526e-02
-1.441952735185623169e-01
-1.402068287134170532e-01
7.801121473312377930e-02
1.999645084142684937e-01
-1.834649778902530670e-02
-2.514342367649078369e-01
7.352771703153848648e-03
-1.756018726155161858e-03
-2.382263541221618652e-02
-2.105896770954132080e-01
3.966656699776649475e-02
2.042995393276214600e-01
1.700463593006134033e-01
-1.708892583847045898e-01
-3.473783284425735474e-02
-1.924048066139221191e-01
7.262757862918078899e-04
2.638483345508575439e-01
-1.129558384418487549e-01
5.971146747469902039e-02
1.189032122492790222e-01
-2.240566611289978027e-01
6.163569167256355286e-02
2.510378658771514893e-01
2.076507508754730225e-01
-2.462747842073440552e-01
1.506681293249130249e-01
-1.718919128179550171e-01
2.002455741167068481e-01
1.642256677150726318e-01
7.737514376640319824e-02
9.124642238020896912e-03
1.052927151322364807e-01
1.094236150383949280e-01
7.832725346088409424e-02
-8.203899115324020386e-02
-1.064698323607444763e-01
2.673412486910820007e-02
-2.164977639913558960e-01
-1.035728305578231812e-02
2.348186522722244263e-01
-1.469514518976211548e-01
-2.097266697091981769e-04
-3.802513182163238525e-01
1.942003518342971802e-02
1.634281128644943237e-01
-6.966013461351394653e-02
-7.968271523714065552e-02
-1.040894314646720886e-01
1.171700097620487213e-02
2.042147070169448853e-01
2.154129743576049805e-01
4.146431386470794678e-02
-4.903579130768775940e-02
2.363275587558746338e-01
5.536245554685592651e-02
1.008504107594490051e-01
3.137367367744445801e-01
-1.610097140073776245e-01
8.465801179409027100e-02
4.723937064409255981e-02
-1.557072103023529053e-01
1.565747261047363281e-01
7.563016563653945923e-02
-4.883619025349617004e-02
-1.441106945276260376e-01
1.058884710073471069e-01
2.903715074062347412e-01
8.538697659969329834e-02
-2.646784782409667969e-01
1.571860313415527344e-01
7.434809952974319458e-02
-5.070228874683380127e-02
-4.756794124841690063e-02
4.750221967697143555e-02
8.146306127309799194e-02
-9.382128715515136719e-02
-2.722323127090930939e-02
-4.923408851027488708e-02
-1.517936140298843384e-01
1.481167506426572800e-02
2.962090373039245605e-01
1.170045062899589539e-01
3.123088479042053223e-01
6.566426903009414673e-02
2.383000254631042480e-01
2.097730189561843872e-01
2.670555412769317627e-01
2.788773179054260254e-02
1.820456832647323608e-01
-3.261375008150935173e-03
-2.433865964412689209e-01
2.174477428197860718e-01
-9.268549829721450806e-02
1.528767589479684830e-02
-1.120713576674461365e-01
-7.387473434209823608e-02
-3.157074451446533203e-01
2.073110826313495636e-02
-1.688415706157684326e-01
7.361689954996109009e-02
9.688804857432842255e-03
3.386972844600677490e-02
-3.168502151966094971e-01
-9.187565743923187256e-02
1.493426561355590820e-01
1.400977820158004761e-01
-2.568773627281188965e-01
-1.035854369401931763e-01
9.210601449012756348e-02
2.829883620142936707e-02
7.916318625211715698e-02
-1.700839400291442871e-01
3.393215835094451904e-01
2.230985313653945923e-01
5.555311590433120728e-02
3.366931974887847900e-01
1.821942031383514404e-01
-2.715517580509185791e-01
6.529811769723892212e-02
-1.928211450576782227e-01
-1.381169706583023071e-01
1.340332627296447754e-01
2.299386709928512573e-01
7.941666059195995331e-03
1.257252842187881470e-01
2.379160188138484955e-02
-2.237462252378463745e-02
-1.248393356800079346e-01
-2.424958199262619019e-01
2.902448177337646484e-01
-1.767919957637786865e-01
1.202515438199043274e-01
1.512417104095220566e-02
1.882139146327972412e-01
-2.113391906023025513e-01
1.842756010591983795e-02
-1.286664009094238281e-01
1.980680413544178009e-02
3.260176628828048706e-02
-6.457363069057464600e-02
1.794952005147933960e-01
-8.655640296638011932e-03
-1.593774408102035522e-01
1.835977137088775635e-01
2.510502189397811890e-02
7.122483849525451660e-02
-1.313274800777435303e-01
-1.083516776561737061e-01
-1.302661299705505371e-01
-3.666986152529716492e-02
2.202813774347305298e-01
7.462401874363422394e-03
-1.013328805565834045e-01
-1.983624696731567383e-01
7.921844720840454102e-02
-3.676038607954978943e-02
2.100319713354110718e-01
-9.091477096080780029e-02
-1.345300525426864624e-01
-1.211136803030967712e-01
3.206447511911392212e-02
-8.445401489734649658e-02
-4.311693608760833740e-01
4.844958335161209106e-02
1.955836266279220581e-01
-3.101571649312973022e-02
7.087475806474685669e-02
3.441832587122917175e-02
-2.920401394367218018e-01
5.436034500598907471e-02
-2.754575014114379883e-01
9.855671226978302002e-02
9.335128962993621826e-02
1.685373783111572266e-01
1.930918991565704346e-01
9.066848456859588623e-02
2.914924621582031250e-01
1.698310300707817078e-02
4.387266188859939575e-02
3.397010266780853271e-01
-2.394909411668777466e-02
1.999513059854507446e-01
2.174420803785324097e-01
-6.965247541666030884e-02
-9.038917720317840576e-02
1.542179286479949951e-01
-1.000542193651199341e-01
-2.082695960998535156e-01
-1.206778138875961304e-01
-1.312041580677032471e-01
2.215235233306884766e-01
-8.982057124376296997e-02
-1.796735674142837524e-01
-1.974324928596615791e-03
-2.824976854026317596e-02
1.754917055368423462e-01
-1.618199646472930908e-01
-5.686654150485992432e-02
-1.255207210779190063e-01
-9.878761321306228638e-02
-1.204201355576515198e-01
-2.652490437030792236e-01
-4.236578568816184998e-02
-2.414740175008773804e-01
4.844087362289428711e-02
2.397371232509613037e-01
1.980207115411758423e-01
-2.415954950265586376e-04
-4.253723099827766418e-02
3.497027233242988586e-02
-1.547975242137908936e-01
1.197123974561691284e-01
3.525693714618682861e-01
1.240383386611938477e-01
-5.463276430964469910e-02
3.407360613346099854e-01
-1.455373410135507584e-02
-3.112259507179260254e-02
1.082051992416381836e-01
7.202544063329696655e-02
-1.622821390628814697e-01
-1.379337310791015625e-01
-3.133371770381927490e-01
-9.380252659320831299e-02
-3.461557924747467041e-01
-6.693940609693527222e-02
-4.713707789778709412e-02
1.110245212912559509e-01
-1.180138960480690002e-01
3.320130705833435059e-01
3.557833135128021240e-01
1.883264817297458649e-02
-2.143475115299224854e-01
3.024938106536865234e-01
-1.266581565141677856e-01
-9.538599103689193726e-02
1.531571596860885620e-01
-9.113264828920364380e-02
-1.503258496522903442e-01
2.158950828015804291e-02
8.659473061561584473e-02
3.207074701786041260e-01
-1.332753002643585205e-01
-4.023735597729682922e-02
-2.855806648731231689e-01
-2.150394581258296967e-02
-1.869300603866577148e-01
4.654753208160400391e-02
-1.921198703348636627e-02
9.121594950556755066e-03
-6.913316249847412109e-02
8.047737181186676025e-02
1.814684085547924042e-02
-1.000795736908912659e-01
-1.731200069189071655e-01
3.846902251243591309e-01
2.602472901344299316e-01
-2.518928349018096924e-01
-9.943720884621143341e-03
1.001642420887947083e-01
2.224984467029571533e-01
-7.984710484743118286e-02
4.211775213479995728e-02
6.795281171798706055e-02
-1.053183525800704956e-01
4.830996692180633545e-01
3.153784945607185364e-02
-1.620949953794479370e-01
-3.642398864030838013e-02
-1.132456064224243164e-01
1.222162172198295593e-01
2.400086224079132080e-01
-9.727686643600463867e-02
-2.067452371120452881e-01
-1.644912809133529663e-01
2.135938256978988647e-01
2.096815854310989380e-01
5.375640094280242920e-02
-2.225117012858390808e-02
6.030555069446563721e-02
-6.707392632961273193e-02
-9.988079965114593506e-02
2.072834521532058716e-01
1.599501818418502808e-01
-7.792924344539642334e-02
-1.142455171793699265e-02
4.116235673427581787e-02
-1.246152371168136597e-01
1.104379296302795410e-01
-2.580114006996154785e-01
4.781041666865348816e-02
-2.318847551941871643e-02
1.018254831433296204e-02
3.560039773583412170e-02
1.313960701227188110e-01
6.663425266742706299e-02
1.256809830665588379e-01
3.319782391190528870e-02
1.960442066192626953e-01
-1.891045272350311279e-01
1.428089570254087448e-02
1.347807645797729492e-01
-1.244124695658683777e-01
2.157629728317260742e-01
1.970077604055404663e-01
2.303372174501419067e-01
2.692901901900768280e-02
-1.012743264436721802e-01
6.484366208314895630e-02
1.268207728862762451e-01
-2.631544694304466248e-02
2.367812693119049072e-01
-2.518035173416137695e-01
-2.517707347869873047e-01
-7.910803705453872681e-02
2.115676403045654297e-01
7.282336801290512085e-02
-1.827138476073741913e-02
1.377001106739044189e-01
-1.214858070015907288e-01
-3.989011421799659729e-02
-1.200689524412155151e-01
2.323525212705135345e-02
9.084009379148483276e-02
-1.959062814712524414e-01
8.134736120700836182e-02
-7.251009345054626465e-02
-1.810230687260627747e-02
1.982206106185913086e-01
1.447012126445770264e-01
-3.114709071815013885e-02
-1.484902650117874146e-01
-1.308329999446868896e-01
1.326755136251449585e-01
4.552825689315795898e-01
8.672117255628108978e-03
-5.751399695873260498e-02
-5.395258218050003052e-02
-1.183798387646675110e-01
-9.517320245504379272e-02
-9.640829265117645264e-02
9.034248441457748413e-02
9.397641755640506744e-03
-6.809256970882415771e-02
-4.213792085647583008e-02
-1.477094888687133789e-01
4.549561068415641785e-02
-3.540321812033653259e-02
1.931276917457580566e-01
1.638187170028686523e-01
2.179366946220397949e-01
-2.403865158557891846e-01
1.133105680346488953e-01
1.029031276702880859e-01
1.355066597461700439e-01
2.892593108117580414e-02
1.276635676622390747e-01
-1.182233393192291260e-01
-1.058348417282104492e-01
-3.460098803043365479e-01
-1.438443213701248169e-01
-5.977743491530418396e-02
-1.098679900169372559e-01
5.569965392351150513e-02
2.974735796451568604e-01
-1.991349905729293823e-01
-2.058021873235702515e-01
1.739280223846435547e-01
2.740152180194854736e-01
2.606497704982757568e-02
-2.242280840873718262e-01
2.162680774927139282e-01
1.528962999582290649e-01
7.972571253776550293e-02
4.177613183856010437e-02
-1.042429804801940918e-01
2.591581046581268311e-01
-1.967408752534538507e-04
-1.494427174329757690e-01
1.152748838067054749e-01
2.249915748834609985e-01
-1.209549792110919952e-02
-9.539049118757247925e-02
-1.377105060964822769e-02
-2.284107916057109833e-02
-1.153852492570877075e-01
-2.600591480731964111e-01
3.332358896732330322e-01
-9.432126581668853760e-02
-6.081389635801315308e-02
-2.443796694278717041e-01
3.893681764602661133e-01
-9.152411669492721558e-02
1.345339268445968628e-01
1.013062223792076111e-01
-3.874200880527496338e-01
-6.533670425415039062e-02
-3.597143292427062988e-02
2.347726970911026001e-01
-4.593378677964210510e-02
-1.328801214694976807e-01
-7.828199863433837891e-02
-9.584312885999679565e-02
-1.974787116050720215e-01
1.844908744096755981e-01
-1.828923225402832031e-01
3.857992962002754211e-02
5.739989504218101501e-02
-2.072017341852188110e-01
-2.501420304179191589e-02
-1.355003714561462402e-01
2.094070613384246826e-02
-3.810295090079307556e-02
-1.697592586278915405e-01
3.024274110794067383e-01
-3.413037210702896118e-02
-9.780287742614746094e-02
3.638586997985839844e-01
2.437182143330574036e-02
5.291447043418884277e-03
-3.471436351537704468e-02
3.628401085734367371e-02
-1.421260368078947067e-02
1.951989382505416870e-01
1.702865958213806152e-01
1.294417232275009155e-01
-1.237018853425979614e-01
3.244157433509826660e-01
-7.212268188595771790e-03
2.553059458732604980e-01
-2.727560997009277344e-01
-2.299847006797790527e-01
5.693137273192405701e-02
-4.284656792879104614e-02
7.199611514806747437e-02
-2.637416124343872070e-01
-1.120698526501655579e-01
-2.904056906700134277e-01
2.027024179697036743e-01
-1.543731093406677246e-01
-1.087596639990806580e-02
2.234997041523456573e-02
1.680757105350494385e-01
2.482118308544158936e-01
-2.211361527442932129e-01
1.455687433481216431e-01
-8.357593417167663574e-02
2.206961065530776978e-01
-1.143153682351112366e-01
-2.126483768224716187e-01
-7.919932156801223755e-02
-2.066471278667449951e-01
-3.222756981849670410e-01
6.268995930440723896e-04
2.291006967425346375e-02
-1.123467553406953812e-02
1.198181137442588806e-01
2.789855003356933594e-01
-2.319733202457427979e-01
-4.014774858951568604e-01
1.307095736265182495e-01
-2.201494574546813965e-01
7.630021125078201294e-02
-8.405655622482299805e-02
3.027173317968845367e-02
2.987049818038940430e-01
-3.012254461646080017e-02
-1.391946524381637573e-01
6.892726570367813110e-02
-2.547328472137451172e-01
-2.306040227413177490e-01
-1.582202850840985775e-03
1.149308010935783386e-01
4.698910564184188843e-02
4.578800871968269348e-02
